{"learner":{"attributes":{"scikit_learn":"{\"_estimator_type\": \"regressor\"}"},"feature_names":["package_count","total_volume_cm3","total_planned_service_time_seconds","has_time_window","lat","lng","distance_from_depot_seconds","route_stop_count","departure_hour"],"feature_types":["int","float","float","int","float","float","float","int","int"],"gradient_booster":{"model":{"cats":{"enc":[],"feature_segments":[],"sorted_idx":[]},"gbtree_model_param":{"num_parallel_tree":"1","num_trees":"200"},"iteration_indptr":[0,1,2,3,4,5,6,7,8,9,10,11,12,13,14,15,16,17,18,19,20,21,22,23,24,25,26,27,28,29,30,31,32,33,34,35,36,37,38,39,40,41,42,43,44,45,46,47,48,49,50,51,52,53,54,55,56,57,58,59,60,61,62,63,64,65,66,67,68,69,70,71,72,73,74,75,76,77,78,79,80,81,82,83,84,85,86,87,88,89,90,91,92,93,94,95,96,97,98,99,100,101,102,103,104,105,106,107,108,109,110,111,112,113,114,115,116,117,118,119,120,121,122,123,124,125,126,127,128,129,130,131,132,133,134,135,136,137,138,139,140,141,142,143,144,145,146,147,148,149,150,151,152,153,154,155,156,157,158,159,160,161,162,163,164,165,166,167,168,169,170,171,172,173,174,175,176,177,178,179,180,181,182,183,184,185,186,187,188,189,190,191,192,193,194,195,196,197,198,199,200],"tree_info":[0,0,0,0,0,0,0,0,0,0,0,0,0,0,0,0,0,0,0,0,0,0,0,0,0,0,0,0,0,0,0,0,0,0,0,0,0,0,0,0,0,0,0,0,0,0,0,0,0,0,0,0,0,0,0,0,0,0,0,0,0,0,0,0,0,0,0,0,0,0,0,0,0,0,0,0,0,0,0,0,0,0,0,0,0,0,0,0,0,0,0,0,0,0,0,0,0,0,0,0,0,0,0,0,0,0,0,0,0,0,0,0,0,0,0,0,0,0,0,0,0,0,0,0,0,0,0,0,0,0,0,0,0,0,0,0,0,0,0,0,0,0,0,0,0,0,0,0,0,0,0,0,0,0,0,0,0,0,0,0,0,0,0,0,0,0,0,0,0,0,0,0,0,0,0,0,0,0,0,0,0,0,0,0,0,0,0,0,0,0,0,0,0,0,0,0,0,0,0,0],"trees":[{"base_weights":[4.4859186E-4,-1.11639075E-1,2.708529E-3,-8.798156E-2,-1.9187881E-1,3.7274086E-3,-1.6393723E-1,-1.3300875E-1,2.5299005E-3,-1.7415465E-1,-2.4568301E-1,1.6387148E-2,-9.300165E-3,-2.3552184E-1,-1.3312896E-1,-1.5824983E-1,-4.0203817E-2,-3.6269266E-2,1.21047765E-1,-2.3141152E-1,-1.4841327E-1,-2.7234883E-3,-1.2398104E-2,1.2277237E-2,9.259283E-2,-6.061766E-3,-1.389143E-1,-1.7266852E-1,-1.2643503E-2,-9.465429E-2,-2.2158855E-1,-3.5290911E-3,-9.714487E-3,-1.1348481E-2,7.4336735E-5,-2.445476E-3,5.8773602E-3,2.0862871E-3,8.528856E-3,-1.27996355E-2,-9.639852E-3,-2.724066E-3,-9.66392E-3,2.0318998E-3,1.9827372E-4,4.115281E-3,1.465966E-2,4.8687146E-3,-4.679261E-4,-9.720712E-3,-4.2076395E-3,-1.349096E-2,-1.2246582E-3,-4.964489E-3,6.0690963E-3,-7.096507E-4,-1.1215486E-2],"categories":[],"categories_nodes":[],"categories_segments":[],"categories_sizes":[],"default_left":[0,0,0,0,0,0,0,0,0,0,0,0,0,0,0,0,0,0,0,0,0,0,0,0,0,0,0,0,0,0,0,0,0,0,0,0,0,0,0,0,0,0,0,0,0,0,0,0,0,0,0,0,0,0,0,0,0],"id":0,"left_children":[1,3,5,7,9,11,13,15,17,19,21,23,25,27,29,31,33,35,37,39,41,-1,-1,43,45,47,49,51,-1,53,55,-1,-1,-1,-1,-1,-1,-1,-1,-1,-1,-1,-1,-1,-1,-1,-1,-1,-1,-1,-1,-1,-1,-1,-1,-1,-1],"loss_changes":[1.4457524E1,2.1243706E0,9.499794E0,3.5582285E0,2.0134354E-1,9.171174E0,7.184801E-1,1.359313E0,1.3425231E0,2.5453377E-1,1.3076305E-2,8.831687E0,1.1502614E1,6.646633E-2,7.9585457E-1,1.4333582E0,9.814201E-1,4.334904E-1,2.7575374E-1,6.647587E-3,5.710392E-1,0E0,0E0,6.307916E0,2.9536667E0,9.119E0,2.0138655E0,3.5327464E-1,0E0,1.8129408E-1,3.7450075E-2,0E0,0E0,0E0,0E0,0E0,0E0,0E0,0E0,0E0,0E0,0E0,0E0,0E0,0E0,0E0,0E0,0E0,0E0,0E0,0E0,0E0,0E0,0E0,0E0,0E0,0E0],"parents":[2147483647,0,0,1,1,2,2,3,3,4,4,5,5,6,6,7,7,8,8,9,9,10,10,11,11,12,12,13,13,14,14,15,15,16,16,17,17,18,18,19,19,20,20,23,23,24,24,25,25,26,26,27,27,29,29,30,30],"right_children":[2,4,6,8,10,12,14,16,18,20,22,24,26,28,30,32,34,36,38,40,42,-1,-1,44,46,48,50,52,-1,54,56,-1,-1,-1,-1,-1,-1,-1,-1,-1,-1,-1,-1,-1,-1,-1,-1,-1,-1,-1,-1,-1,-1,-1,-1,-1,-1],"split_conditions":[3.0312185E1,1.66E2,2.14E2,1.8316E3,2.0953E3,1.5E1,1.0983E3,1.46E2,3.025004E1,1.6968E3,2.4E1,1.98E2,2.02E2,2.9E1,1.9355E3,1.01E2,1.1807E3,2.2927E3,2.088E3,1.5961E3,1.8316E3,-2.7234883E-3,-1.2398104E-2,1.4299E3,4.735526E1,3.3631615E1,1.95E3,2.7E1,-1.2643503E-2,4.220754E1,2E1,-3.5290911E-3,-9.714487E-3,-1.1348481E-2,7.4336735E-5,-2.445476E-3,5.8773602E-3,2.0862871E-3,8.528856E-3,-1.27996355E-2,-9.639852E-3,-2.724066E-3,-9.66392E-3,2.0318998E-3,1.9827372E-4,4.115281E-3,1.465966E-2,4.8687146E-3,-4.679261E-4,-9.720712E-3,-4.2076395E-3,-1.349096E-2,-1.2246582E-3,-4.964489E-3,6.0690963E-3,-7.096507E-4,-1.1215486E-2],"split_indices":[4,7,7,6,6,8,6,7,4,6,2,7,7,2,6,7,6,6,6,6,6,0,0,6,4,4,6,2,0,4,2,0,0,0,0,0,0,0,0,0,0,0,0,0,0,0,0,0,0,0,0,0,0,0,0,0,0],"split_type":[0,0,0,0,0,0,0,0,0,0,0,0,0,0,0,0,0,0,0,0,0,0,0,0,0,0,0,0,0,0,0,0,0,0,0,0,0,0,0,0,0,0,0,0,0,0,0,0,0,0,0,0,0,0,0,0,0],"sum_hessian":[5.7072E4,1.127E3,5.5945E4,8.72E2,2.55E2,5.5606E4,3.39E2,5.82E2,2.9E2,1.95E2,6E1,2.8201E4,2.7405E4,1E2,2.39E2,4.57E2,1.25E2,2.19E2,7.1E1,5.8E1,1.37E2,1E0,5.9E1,2.6759E4,1.442E3,2.6738E4,6.67E2,2.4E1,7.6E1,1.68E2,7.1E1,1.34E2,3.23E2,2.2E1,1.03E2,2.03E2,1.6E1,2.8E1,4.3E1,3.2E1,2.6E1,4.5E1,9.2E1,6.064E3,2.0695E4,1.373E3,6.9E1,8.25E2,2.5913E4,3.3E2,3.37E2,1.4E1,1E1,1.65E2,3E0,1E0,7E1],"tree_param":{"num_deleted":"0","num_feature":"9","num_nodes":"57","size_leaf_vector":"1"}},{"base_weights":[2.9155044E-4,-1.0770903E-1,2.429442E-3,-8.25427E-2,-1.866821E-1,3.364958E-3,-1.5571441E-1,-1.2469294E-1,-1.468151E-3,3.1681962E-2,-1.9013683E-1,5.2985746E-2,6.3226174E-4,-2.2514424E-1,-1.22474015E-1,-1.01976566E-1,-2.150444E-1,-2.4134506E-2,1.2146649E-1,-1.00312745E-2,1.2671438E-2,-1.7583756E-1,-2.3534706E-1,1.9829977E-2,1.0044591E-1,-2.097369E-2,5.6104534E-3,-1.478835E-1,-1.2434995E-2,-8.419925E-2,-2.148046E-1,1.3207116E-3,-6.3276137E-3,-1.1354543E-2,-4.8870333E-3,-1.7988359E-3,5.166584E-3,7.214636E-4,8.2249725E-3,-8.947801E-3,4.5855492E-3,-2.6554011E-3,-1.1876787E-2,2.540663E-3,-3.3740245E-3,1.2794673E-2,4.106189E-3,3.188066E-4,-3.9863116E-3,-2.1452775E-4,1.1704407E-3,-8.842532E-3,7.1401903E-3,-4.439236E-3,5.841505E-3,-6.9190934E-4,-1.0886424E-2],"categories":[],"categories_nodes":[],"categories_segments":[],"categories_sizes":[],"default_left":[0,0,0,0,0,0,0,0,0,0,0,0,0,0,0,0,0,0,0,0,0,0,0,0,0,0,0,0,0,0,0,0,0,0,0,0,0,0,0,0,0,0,0,0,0,0,0,0,0,0,0,0,0,0,0,0,0],"id":1,"left_children":[1,3,5,7,9,11,13,15,17,19,21,23,25,27,29,31,33,35,37,-1,-1,39,41,43,45,47,49,51,-1,53,55,-1,-1,-1,-1,-1,-1,-1,-1,-1,-1,-1,-1,-1,-1,-1,-1,-1,-1,-1,-1,-1,-1,-1,-1,-1,-1],"loss_changes":[1.31321E1,2.1787481E0,8.251626E0,2.866942E0,2.0669174E-1,7.5180926E0,7.2940874E-1,1.1110268E0,8.054378E-1,3.084114E-1,1.2799358E-1,4.551943E0,5.6524277E0,1.5431356E-1,7.7351403E-1,1.4011378E0,1.3324451E-1,3.7203103E-1,2.0490217E-1,0E0,0E0,1.8578291E-1,1.1316538E-2,4.615734E0,3.3682613E0,1.5813728E1,7.5267057E0,2.526052E-1,0E0,1.578629E-1,3.5181046E-2,0E0,0E0,0E0,0E0,0E0,0E0,0E0,0E0,0E0,0E0,0E0,0E0,0E0,0E0,0E0,0E0,0E0,0E0,0E0,0E0,0E0,0E0,0E0,0E0,0E0,0E0],"parents":[2147483647,0,0,1,1,2,2,3,3,4,4,5,5,6,6,7,7,8,8,9,9,10,10,11,11,12,12,13,13,14,14,15,15,16,16,17,17,18,18,21,21,22,22,23,23,24,24,25,25,26,26,27,27,29,29,30,30],"right_children":[2,4,6,8,10,12,14,16,18,20,22,24,26,28,30,32,34,36,38,-1,-1,40,42,44,46,48,50,52,-1,54,56,-1,-1,-1,-1,-1,-1,-1,-1,-1,-1,-1,-1,-1,-1,-1,-1,-1,-1,-1,-1,-1,-1,-1,-1,-1,-1],"split_conditions":[3.0312185E1,1.66E2,2.14E2,1.8252E3,5.5104E2,9.063E2,1.0983E3,1.5961E3,3.028052E1,5.8E1,2.0953E3,1.68E2,3.386152E1,3.02316E3,1.9235E3,1.01E2,3.025004E1,2.2927E3,2.1027E3,-1.00312745E-2,1.2671438E-2,2.088E3,2.4E1,1.6E2,1.73E2,1.65E2,1.7E2,7.9E1,-1.2434995E-2,4.220754E1,2E1,1.3207116E-3,-6.3276137E-3,-1.1354543E-2,-4.8870333E-3,-1.7988359E-3,5.166584E-3,7.214636E-4,8.2249725E-3,-8.947801E-3,4.5855492E-3,-2.6554011E-3,-1.1876787E-2,2.540663E-3,-3.3740245E-3,1.2794673E-2,4.106189E-3,3.188066E-4,-3.9863116E-3,-2.1452775E-4,1.1704407E-3,-8.842532E-3,7.1401903E-3,-4.439236E-3,5.841505E-3,-6.9190934E-4,-1.0886424E-2],"split_indices":[4,7,7,6,1,6,6,6,4,2,6,7,4,1,6,7,4,6,6,0,0,6,2,7,7,7,7,2,0,4,2,0,0,0,0,0,0,0,0,0,0,0,0,0,0,0,0,0,0,0,0,0,0,0,0,0,0],"split_type":[0,0,0,0,0,0,0,0,0,0,0,0,0,0,0,0,0,0,0,0,0,0,0,0,0,0,0,0,0,0,0,0,0,0,0,0,0,0,0,0,0,0,0,0,0,0,0,0,0,0,0,0,0,0,0,0,0],"sum_hessian":[5.6873E4,1.103E3,5.577E4,8.38E2,2.65E2,5.5443E4,3.27E2,5.51E2,2.87E2,4E0,2.61E2,2.893E3,5.255E4,1.04E2,2.23E2,4.42E2,1.09E2,2.43E2,4.4E1,2E0,2E0,2.02E2,5.9E1,1.704E3,1.189E3,9.84E3,4.271E4,2.6E1,7.8E1,1.59E2,6.4E1,7.1E1,3.71E2,9.8E1,1.1E1,2.23E2,2E1,1.3E1,3.1E1,2E2,2E0,1E0,5.8E1,1.258E3,4.46E2,1.24E2,1.065E3,6.715E3,3.125E3,2.7444E4,1.5266E4,2.4E1,2E0,1.56E2,3E0,1E0,6.3E1],"tree_param":{"num_deleted":"0","num_feature":"9","num_nodes":"57","size_leaf_vector":"1"}},{"base_weights":[-4.351447E-4,-1.1382008E-1,1.3512801E-3,-1.3431294E-1,-5.8271278E-2,1.2637043E-2,-1.0408092E-2,-1.4288588E-1,4.0095784E-2,-1.7071651E-1,-1.3736328E-2,9.728167E-3,7.737586E-2,7.9200864E-2,-1.3435008E-2,-1.68495E-1,-1.1780041E-1,6.733381E-2,-5.750436E-3,-2.145202E-1,-1.0808114E-1,-1.745097E-1,2.6314578E-3,1.2188043E-2,-5.384062E-2,4.3461412E-2,1.1487446E-1,4.3973053E-1,6.837272E-2,-5.5655763E-2,-5.9271287E-3,-1.0164419E-2,-6.4963074E-3,-1.4126896E-3,-6.6144275E-3,2.319114E-3,7.512204E-3,-1.3410088E-3,-1.1470844E-2,-6.4792405E-3,3.2044451E-3,-9.54011E-3,-5.0252876E-3,9.275432E-3,-1.1103192E-3,3.5910663E-4,2.9729975E-3,-3.9075213E-4,-9.255714E-3,2.6892694E-3,-4.192081E-3,6.3752495E-3,2.1117663E-3,5.2499934E-3,2.3162488E-2,-7.491097E-4,5.01823E-3,1.0083228E-3,-3.5198727E-3,2.2222327E-4,-2.2611308E-3],"categories":[],"categories_nodes":[],"categories_segments":[],"categories_sizes":[],"default_left":[0,0,0,0,0,0,0,0,0,0,0,0,0,0,0,0,0,0,0,0,0,0,0,0,0,0,0,0,0,0,0,0,0,0,0,0,0,0,0,0,0,0,0,0,0,0,0,0,0,0,0,0,0,0,0,0,0,0,0,0,0],"id":2,"left_children":[1,3,5,7,9,11,13,15,17,19,21,23,25,27,29,31,33,35,-1,37,39,41,43,45,47,49,51,53,55,57,59,-1,-1,-1,-1,-1,-1,-1,-1,-1,-1,-1,-1,-1,-1,-1,-1,-1,-1,-1,-1,-1,-1,-1,-1,-1,-1,-1,-1,-1,-1],"loss_changes":[1.1543891E1,9.9847794E-1,7.44642E0,9.701309E-1,1.1995133E0,5.390957E0,7.4541616E0,3.7523746E-1,1.3871092E-1,1.6338325E-1,4.5570943E-1,4.285388E0,1.5605254E0,3.4756079E0,8.425537E0,3.788538E-1,4.0363455E-1,3.993296E-2,0E0,1.0289514E-1,1.1937356E-1,1.14649534E-4,7.217988E-1,6.242346E0,6.1673813E0,8.5615885E-1,5.3041697E-1,1.5604687E-1,2.329515E0,4.4869394E0,9.198352E0,0E0,0E0,0E0,0E0,0E0,0E0,0E0,0E0,0E0,0E0,0E0,0E0,0E0,0E0,0E0,0E0,0E0,0E0,0E0,0E0,0E0,0E0,0E0,0E0,0E0,0E0,0E0,0E0,0E0,0E0],"parents":[2147483647,0,0,1,1,2,2,3,3,4,4,5,5,6,6,7,7,8,8,9,9,10,10,11,11,12,12,13,13,14,14,15,15,16,16,17,17,19,19,20,20,21,21,22,22,23,23,24,24,25,25,26,26,27,27,28,28,29,29,30,30],"right_children":[2,4,6,8,10,12,14,16,18,20,22,24,26,28,30,32,34,36,-1,38,40,42,44,46,48,50,52,54,56,58,60,-1,-1,-1,-1,-1,-1,-1,-1,-1,-1,-1,-1,-1,-1,-1,-1,-1,-1,-1,-1,-1,-1,-1,-1,-1,-1,-1,-1,-1,-1],"split_conditions":[3.028052E1,1.5E1,1.5E1,2.2483E3,3.0215637E1,4.7509563E1,3.3631615E1,1.7205E3,3.0187313E1,1.9165E3,1.2011E3,4.7283604E1,1.3524E3,6.984E2,3.380075E1,3.025004E1,1.8316E3,1.14E2,-5.750436E-3,3.0187313E1,4.173969E4,1.1807E3,1.3365E3,4.7089836E1,1.7125E3,4.7640713E1,4.781457E1,3.0457497E1,3.0457497E1,1.0879E3,2.3086E3,-1.0164419E-2,-6.4963074E-3,-1.4126896E-3,-6.6144275E-3,2.319114E-3,7.512204E-3,-1.3410088E-3,-1.1470844E-2,-6.4792405E-3,3.2044451E-3,-9.54011E-3,-5.0252876E-3,9.275432E-3,-1.1103192E-3,3.5910663E-4,2.9729975E-3,-3.9075213E-4,-9.255714E-3,2.6892694E-3,-4.192081E-3,6.3752495E-3,2.1117663E-3,5.2499934E-3,2.3162488E-2,-7.491097E-4,5.01823E-3,1.0083228E-3,-3.5198727E-3,2.2222327E-4,-2.2611308E-3],"split_indices":[4,8,8,6,4,4,4,6,4,6,6,4,6,6,4,4,6,2,0,4,1,6,6,4,6,4,4,4,4,6,6,0,0,0,0,0,0,0,0,0,0,0,0,0,0,0,0,0,0,0,0,0,0,0,0,0,0,0,0,0,0],"split_type":[0,0,0,0,0,0,0,0,0,0,0,0,0,0,0,0,0,0,0,0,0,0,0,0,0,0,0,0,0,0,0,0,0,0,0,0,0,0,0,0,0,0,0,0,0,0,0,0,0,0,0,0,0,0,0,0,0,0,0,0,0],"sum_hessian":[5.699E4,8.83E2,5.6107E4,6.44E2,2.39E2,2.863E4,2.7477E4,6.14E2,3E1,6.7E1,1.72E2,2.74E4,1.23E3,8.97E2,2.658E4,3.01E2,3.13E2,2.6E1,4E0,3.8E1,2.9E1,1.5E1,1.57E2,2.638E4,1.02E3,6.47E2,5.83E2,2.5E1,8.72E2,4.012E3,2.2568E4,1.56E2,1.45E2,4.4E1,2.69E2,2.2E1,4E0,3E0,3.5E1,2.6E1,3E0,1.1E1,4E0,1.8E1,1.39E2,2.3855E4,2.525E3,7.56E2,2.64E2,5.99E2,4.8E1,4.96E2,8.7E1,2E0,2.3E1,2.42E2,6.3E2,6.53E2,3.359E3,1.7856E4,4.712E3],"tree_param":{"num_deleted":"0","num_feature":"9","num_nodes":"61","size_leaf_vector":"1"}},{"base_weights":[-5.3074304E-4,-1.0654946E-1,1.1606633E-3,-9.711968E-3,-1.3743773E-1,2.0917244E-3,-1.483422E-1,-1.3011378E-2,1.1554145E-2,-5.744914E-2,-1.6234256E-1,1.3711266E-2,-9.901872E-3,-1.216409E-2,-1.3862062E-1,2.3719948E-2,-3.1160649E-2,5.791414E-2,-1.8084699E-1,-1.7154253E-1,-6.1828602E-2,4.5349866E-2,5.2080713E-3,-6.8933875E-3,-1.3016821E-1,-1.04964245E-2,-1.20878555E-1,2.828491E-3,-3.2259107E-3,3.3630378E-4,-3.3801158E-3,1.384884E-3,7.434173E-3,-5.478724E-3,-1.111235E-2,-7.331341E-3,-9.721386E-3,-1.155644E-2,2.4607703E-3,1.1862683E-3,4.706929E-3,9.712649E-5,3.3039523E-3,-1.4402275E-4,-4.9975878E-3,-7.942312E-3,1.5155076E-2,-4.5663766E-3,-8.644249E-3],"categories":[],"categories_nodes":[],"categories_segments":[],"categories_sizes":[],"default_left":[0,0,0,0,0,0,0,0,0,0,0,0,0,0,0,0,0,0,0,0,0,0,0,0,0,0,0,0,0,0,0,0,0,0,0,0,0,0,0,0,0,0,0,0,0,0,0,0,0],"id":3,"left_children":[1,3,5,7,9,11,13,15,-1,17,19,21,23,-1,25,27,29,31,33,35,37,39,41,43,45,-1,47,-1,-1,-1,-1,-1,-1,-1,-1,-1,-1,-1,-1,-1,-1,-1,-1,-1,-1,-1,-1,-1,-1],"loss_changes":[1.0243102E1,2.6817217E0,7.826624E0,1.7620358E-1,1.3453026E0,7.7872996E0,2.8746796E-1,1.4473483E-1,0E0,2.330873E0,4.6840096E-1,7.63535E0,9.948052E0,0E0,3.7694168E-1,2.1234986E-1,2.0064971E-1,2.2901371E-1,2.0875168E-1,2.4176598E-1,8.5736483E-1,6.340616E0,4.446706E0,1.0017905E1,8.385539E0,0E0,3.7917948E-1,0E0,0E0,0E0,0E0,0E0,0E0,0E0,0E0,0E0,0E0,0E0,0E0,0E0,0E0,0E0,0E0,0E0,0E0,0E0,0E0,0E0,0E0],"parents":[2147483647,0,0,1,1,2,2,3,3,4,4,5,5,6,6,7,7,9,9,10,10,11,11,12,12,14,14,15,15,16,16,17,17,18,18,19,19,20,20,21,21,22,22,23,23,24,24,26,26],"right_children":[2,4,6,8,10,12,14,16,-1,18,20,22,24,-1,26,28,30,32,34,36,38,40,42,44,46,-1,48,-1,-1,-1,-1,-1,-1,-1,-1,-1,-1,-1,-1,-1,-1,-1,-1,-1,-1,-1,-1,-1,-1],"split_conditions":[3.028052E1,-9.7850655E1,2.14E2,7E0,1.01E2,1.5E1,-8.798492E1,3.0187313E1,1.1554145E-2,-9.7731094E1,-9.771605E1,-1.1799183E2,2.02E2,-1.216409E-2,4.1715675E1,-9.791953E1,9.1E1,3.676104E4,3.0187313E1,1.4E1,1.46E2,1.78E2,1.98E2,-8.794366E1,-8.804616E1,-1.04964245E-2,4.2189266E1,2.828491E-3,-3.2259107E-3,3.3630378E-4,-3.3801158E-3,1.384884E-3,7.434173E-3,-5.478724E-3,-1.111235E-2,-7.331341E-3,-9.721386E-3,-1.155644E-2,2.4607703E-3,1.1862683E-3,4.706929E-3,9.712649E-5,3.3039523E-3,-1.4402275E-4,-4.9975878E-3,-7.942312E-3,1.5155076E-2,-4.5663766E-3,-8.644249E-3],"split_indices":[4,5,7,0,7,8,5,4,0,5,5,5,7,0,4,5,7,1,4,8,7,7,7,5,5,0,4,0,0,0,0,0,0,0,0,0,0,0,0,0,0,0,0,0,0,0,0,0,0],"split_type":[0,0,0,0,0,0,0,0,0,0,0,0,0,0,0,0,0,0,0,0,0,0,0,0,0,0,0,0,0,0,0,0,0,0,0,0,0,0,0,0,0,0,0,0,0,0,0,0,0],"sum_hessian":[5.712E4,8.96E2,5.6224E4,2.17E2,6.79E2,5.5877E4,3.47E2,2.15E2,2E0,1.62E2,5.17E2,2.8381E4,2.7496E4,3E1,3.17E2,7.1E1,1.44E2,8.4E1,7.8E1,4.73E2,4.4E1,6.011E3,2.237E4,2.6826E4,6.7E2,6.1E1,2.56E2,5.2E1,1.9E1,7.1E1,7.3E1,6.4E1,2E1,3E1,4.8E1,2.3E2,2.43E2,1.7E1,2.7E1,4.166E3,1.845E3,2.1232E4,1.138E3,2.5718E4,1.108E3,6.29E2,4.1E1,1.65E2,9.1E1],"tree_param":{"num_deleted":"0","num_feature":"9","num_nodes":"49","size_leaf_vector":"1"}},{"base_weights":[-5.532634E-4,4.824726E-2,-3.1415364E-3,1.7812725E-2,9.110683E-2,-2.3689608E-3,-1.2801939E-1,-1.2556378E-2,1.17651224E-1,1.0859199E-1,-1.8995719E-1,7.66342E-3,-1.2969861E-2,-2.033852E-1,-9.871784E-2,1.34517355E-2,-8.160476E-2,1.6242298E-1,-1.604351E-2,1.1936716E-1,-2.1002623E-1,-6.914561E-2,-1.0447001E-2,4.2089436E-2,-1.3609971E-3,-8.917734E-3,-9.473863E-2,-2.245479E-1,-1.469938E-1,-6.419308E-2,-1.8047863E-1,-1.4559029E-3,4.47146E-3,-9.151888E-3,4.139762E-3,1.0034242E-3,8.781373E-3,1.1622529E-2,-1.3115155E-3,4.700376E-3,1.0655994E-2,-1.3688328E-2,-6.3767764E-3,-3.920305E-3,-1.6669113E-3,3.1106497E-4,3.5602045E-3,1.6460661E-3,-4.4831098E-4,-2.8351604E-4,-4.4028023E-3,-5.406064E-3,1.4832403E-2,-8.7761525E-3,-1.2121811E-2,-2.8610716E-3,-9.002085E-3,-1.8852929E-3,-4.591081E-3,-7.123346E-3,-1.0486985E-2],"categories":[],"categories_nodes":[],"categories_segments":[],"categories_sizes":[],"default_left":[0,0,0,0,0,0,0,0,0,0,0,0,0,0,0,0,0,0,0,0,0,0,0,0,0,0,0,0,0,0,0,0,0,0,0,0,0,0,0,0,0,0,0,0,0,0,0,0,0,0,0,0,0,0,0,0,0,0,0,0,0],"id":4,"left_children":[1,3,5,7,9,11,13,15,17,19,21,23,25,27,29,31,33,35,37,39,41,43,-1,45,47,49,51,53,55,57,59,-1,-1,-1,-1,-1,-1,-1,-1,-1,-1,-1,-1,-1,-1,-1,-1,-1,-1,-1,-1,-1,-1,-1,-1,-1,-1,-1,-1,-1,-1],"loss_changes":[7.1823378E0,3.7342114E0,5.2093897E0,5.0831184E0,5.863906E0,5.7078133E0,7.1308947E-1,2.3105197E0,2.3430338E0,3.8702145E0,1.4608693E-1,8.566603E0,8.645407E0,7.678485E-2,6.6870284E-1,3.0267162E0,5.88496E0,5.472312E-1,2.5670183E-1,2.5572119E0,1.5963042E-1,1.0336116E-3,0E0,5.980197E0,5.6966076E0,6.3894176E0,6.485031E0,1.4450073E-2,7.2767854E-2,1.2167615E-1,4.908943E-2,0E0,0E0,0E0,0E0,0E0,0E0,0E0,0E0,0E0,0E0,0E0,0E0,0E0,0E0,0E0,0E0,0E0,0E0,0E0,0E0,0E0,0E0,0E0,0E0,0E0,0E0,0E0,0E0,0E0,0E0],"parents":[2147483647,0,0,1,1,2,2,3,3,4,4,5,5,6,6,7,7,8,8,9,9,10,10,11,11,12,12,13,13,14,14,15,15,16,16,17,17,18,18,19,19,20,20,21,21,23,23,24,24,25,25,26,26,27,27,28,28,29,29,30,30],"right_children":[2,4,6,8,10,12,14,16,18,20,22,24,26,28,30,32,34,36,38,40,42,44,-1,46,48,50,52,54,56,58,60,-1,-1,-1,-1,-1,-1,-1,-1,-1,-1,-1,-1,-1,-1,-1,-1,-1,-1,-1,-1,-1,-1,-1,-1,-1,-1,-1,-1,-1,-1],"split_conditions":[9.063E2,1.68E2,2.14E2,-7.121442E1,-7.1132195E1,1.5E1,1.0983E3,1.6E2,1.65E2,2.06E2,4.869E2,-1.1799183E2,1.96E2,-8.796643E1,1.9355E3,1.3E2,1.62E2,5.8E1,7.65072E2,-8.773403E1,8.454E2,1.2958304E4,-1.0447001E-2,-1.22317566E2,1.4136E3,-8.794366E1,-8.804616E1,3.880896E3,9.67E2,-8.770066E1,2.0583E3,-1.4559029E-3,4.47146E-3,-9.151888E-3,4.139762E-3,1.0034242E-3,8.781373E-3,1.1622529E-2,-1.3115155E-3,4.700376E-3,1.0655994E-2,-1.3688328E-2,-6.3767764E-3,-3.920305E-3,-1.6669113E-3,3.1106497E-4,3.5602045E-3,1.6460661E-3,-4.4831098E-4,-2.8351604E-4,-4.4028023E-3,-5.406064E-3,1.4832403E-2,-8.7761525E-3,-1.2121811E-2,-2.8610716E-3,-9.002085E-3,-1.8852929E-3,-4.591081E-3,-7.123346E-3,-1.0486985E-2],"split_indices":[6,7,7,5,5,8,6,7,7,7,6,5,7,5,6,7,7,7,1,5,6,1,0,5,6,5,5,1,6,5,6,0,0,0,0,0,0,0,0,0,0,0,0,0,0,0,0,0,0,0,0,0,0,0,0,0,0,0,0,0,0],"split_type":[0,0,0,0,0,0,0,0,0,0,0,0,0,0,0,0,0,0,0,0,0,0,0,0,0,0,0,0,0,0,0,0,0,0,0,0,0,0,0,0,0,0,0,0,0,0,0,0,0,0,0,0,0,0,0,0,0,0,0,0,0],"sum_hessian":[5.6861E4,2.863E3,5.3998E4,1.675E3,1.188E3,5.3667E4,3.31E2,1.285E3,3.9E2,1.119E3,6.9E1,2.7573E4,2.6094E4,9.1E1,2.4E2,9.34E2,3.51E2,2.92E2,9.8E1,1.083E3,3.6E1,1E1,5.9E1,5.726E3,2.1847E4,2.4863E4,1.231E3,6.4E1,2.7E1,1.7E2,7E1,5.99E2,3.35E2,2.17E2,1.34E2,2.5E1,2.67E2,3E0,9.5E1,8.54E2,2.29E2,1.9E1,1.7E1,7E0,3E0,2.566E3,3.16E3,3.966E3,1.7881E4,2.3884E4,9.79E2,1.191E3,4E1,2E1,4.4E1,8E0,1.9E1,8.8E1,8.2E1,3.3E1,3.7E1],"tree_param":{"num_deleted":"0","num_feature":"9","num_nodes":"61","size_leaf_vector":"1"}},{"base_weights":[5.648461E-4,-9.4115004E-2,2.4714605E-3,1.4956916E-2,-1.2778091E-1,1.0506969E-1,1.2154981E-3,-8.302301E-3,1.1560278E-1,-1.8275602E-1,-1.0914364E-1,9.6169844E-2,3.1510404E-1,1.1655729E-2,-9.897446E-3,6.831781E-4,-1.293523E-1,1.2330233E-1,-6.5418864E-3,-1.0520588E-2,-1.6494079E-1,-6.942384E-2,-1.21913806E-1,1.4434516E-1,6.254795E-2,2.6172623E-2,-3.553483E-2,4.1967086E-2,3.6845612E-3,-5.4397476E-3,-1.078165E-1,-9.499315E-4,1.6568255E-3,6.00229E-3,-1.0085283E-2,6.7872824E-3,3.681166E-3,-5.7035694E-3,-9.071969E-3,1.4468784E-3,-8.107025E-3,-7.480476E-3,-4.9413475E-3,1.7017917E-3,1.0976554E-2,4.1784203E-4,7.3056007E-3,-1.1168038E-2,3.140999E-3,1.0624265E-3,4.402095E-3,2.8298513E-4,-6.3745016E-3,-9.423485E-4,1.260043E-3,-6.0476675E-3,1.1858271E-2],"categories":[],"categories_nodes":[],"categories_segments":[],"categories_sizes":[],"default_left":[0,0,0,0,0,0,0,0,0,0,0,0,0,0,0,0,0,0,0,0,0,0,0,0,0,0,0,0,0,0,0,0,0,0,0,0,0,0,0,0,0,0,0,0,0,0,0,0,0,0,0,0,0,0,0,0,0],"id":5,"left_children":[1,3,5,7,9,11,13,15,17,19,21,23,25,27,29,31,33,35,-1,-1,37,39,41,43,45,-1,47,49,51,53,55,-1,-1,-1,-1,-1,-1,-1,-1,-1,-1,-1,-1,-1,-1,-1,-1,-1,-1,-1,-1,-1,-1,-1,-1,-1,-1],"loss_changes":[1.0278745E1,4.1292458E0,7.1922946E0,6.236509E-1,8.601723E-1,1.2314558E0,6.3977847E0,2.3611757E-1,1.1100674E-1,7.171631E-2,3.1819105E-1,1.0421863E0,1.991087E0,6.8694983E0,1.1658596E1,1.3029382E-1,2.9488575E-1,2.0296335E-2,0E0,0E0,9.344435E-2,1.4547311E0,2.9596615E-1,2.1986542E0,1.737696E0,0E0,2.172409E-1,5.6493826E0,5.833577E0,1.0496143E1,5.2993736E0,0E0,0E0,0E0,0E0,0E0,0E0,0E0,0E0,0E0,0E0,0E0,0E0,0E0,0E0,0E0,0E0,0E0,0E0,0E0,0E0,0E0,0E0,0E0,0E0,0E0,0E0],"parents":[2147483647,0,0,1,1,2,2,3,3,4,4,5,5,6,6,7,7,8,8,9,9,10,10,11,11,12,12,13,13,14,14,15,15,16,16,17,17,20,20,21,21,22,22,23,23,24,24,26,26,27,27,28,28,29,29,30,30],"right_children":[2,4,6,8,10,12,14,16,18,20,22,24,26,28,30,32,34,36,-1,-1,38,40,42,44,46,-1,48,50,52,54,56,-1,-1,-1,-1,-1,-1,-1,-1,-1,-1,-1,-1,-1,-1,-1,-1,-1,-1,-1,-1,-1,-1,-1,-1,-1,-1],"split_conditions":[3.0312185E1,-9.7850655E1,3.054274E1,3.028052E1,-9.781074E1,-9.7694016E1,1.5E1,1E0,2.88E2,5.8E1,1.01E2,-9.778072E1,1E0,-1.1799183E2,1.96E2,2E0,-9.791953E1,9.7E1,-6.5418864E-3,-1.0520588E-2,7.59E1,-9.7731094E1,1.46E2,-9.791953E1,-9.7731094E1,2.6172623E-2,9E1,1.78E2,2.14E2,1.68E2,-8.804616E1,-9.499315E-4,1.6568255E-3,6.00229E-3,-1.0085283E-2,6.7872824E-3,3.681166E-3,-5.7035694E-3,-9.071969E-3,1.4468784E-3,-8.107025E-3,-7.480476E-3,-4.9413475E-3,1.7017917E-3,1.0976554E-2,4.1784203E-4,7.3056007E-3,-1.1168038E-2,3.140999E-3,1.0624265E-3,4.402095E-3,2.8298513E-4,-6.3745016E-3,-9.423485E-4,1.260043E-3,-6.0476675E-3,1.1858271E-2],"split_indices":[4,5,4,4,5,5,8,3,2,2,7,5,3,5,7,0,5,2,0,0,2,5,7,5,5,0,2,7,7,7,5,0,0,0,0,0,0,0,0,0,0,0,0,0,0,0,0,0,0,0,0,0,0,0,0,0,0],"split_type":[0,0,0,0,0,0,0,0,0,0,0,0,0,0,0,0,0,0,0,0,0,0,0,0,0,0,0,0,0,0,0,0,0,0,0,0,0,0,0,0,0,0,0,0,0,0,0,0,0,0,0,0,0,0,0,0,0],"sum_hessian":[5.6938E4,1.123E3,5.5815E4,2.65E2,8.58E2,6.74E2,5.5141E4,2.16E2,4.9E1,2.15E2,6.43E2,6.48E2,2.6E1,2.8431E4,2.671E4,2.02E2,1.4E1,4.8E1,1E0,8E1,1.35E2,1.58E2,4.85E2,2.65E2,3.83E2,1.6E1,1E1,5.919E3,2.2512E4,2.5548E4,1.162E3,1.26E2,7.6E1,3E0,1.1E1,3.7E1,1.1E1,3.5E1,1E2,7.7E1,8.1E1,2.18E2,2.67E2,1.08E2,1.57E2,2.33E2,1.5E2,3E0,7E0,4.084E3,1.835E3,2.2179E4,3.33E2,1.7772E4,7.776E3,1.12E3,4.2E1],"tree_param":{"num_deleted":"0","num_feature":"9","num_nodes":"57","size_leaf_vector":"1"}},{"base_weights":[-3.751664E-4,-1.01407915E-1,1.2431933E-3,-1.263991E-2,-1.3015066E-1,5.2814394E-2,-9.21587E-4,2.1594785E-2,-1.8671723E-2,-6.5360844E-2,-1.483985E-1,2.9346071E-2,1.1474467E-1,-1.4994967E-4,-1.272549E-1,-2.0708624E-1,-4.7942135E-3,3.187137E-2,-1.6431445E-1,-1.5546879E-1,-7.755583E-2,3.8241327E-2,-1.6502753E-1,6.6509835E-2,3.2195705E-1,9.6522765E-3,-1.0360736E-2,-1.9899562E-1,-9.6579134E-2,-1.1033522E-2,-4.226856E-4,-1.0135449E-3,4.899401E-3,7.865756E-3,-1.8054218E-4,-5.339091E-3,-1.0121097E-2,-7.194545E-3,-8.796171E-3,-1.0316302E-2,1.5494773E-3,7.3283137E-4,6.2407665E-3,-2.3890915E-3,-9.883652E-3,1.1690522E-2,8.566839E-4,8.043256E-3,2.1391034E-2,3.0711773E-4,3.5702523E-3,-3.8288592E-4,-5.911247E-3,-1.0067421E-2,6.717928E-4,-3.2789956E-3,-8.654178E-3],"categories":[],"categories_nodes":[],"categories_segments":[],"categories_sizes":[],"default_left":[0,0,0,0,0,0,0,0,0,0,0,0,0,0,0,0,0,0,0,0,0,0,0,0,0,0,0,0,0,0,0,0,0,0,0,0,0,0,0,0,0,0,0,0,0,0,0,0,0,0,0,0,0,0,0,0,0],"id":6,"left_children":[1,3,5,7,9,11,13,-1,15,17,19,21,23,25,27,29,31,33,35,37,39,41,43,45,47,49,51,53,55,-1,-1,-1,-1,-1,-1,-1,-1,-1,-1,-1,-1,-1,-1,-1,-1,-1,-1,-1,-1,-1,-1,-1,-1,-1,-1,-1,-1],"loss_changes":[9.323642E0,2.2920952E0,6.2657495E0,6.0064375E-1,7.930651E-1,3.2827687E0,5.250833E0,0E0,5.716317E-1,1.4580799E0,2.529068E-1,2.8436048E0,6.1853914E0,5.358635E0,7.0041084E-1,3.860843E-2,3.280856E-1,3.4329668E-1,1.4281702E-1,8.835983E-2,7.0526433E-1,3.2038312E0,2.6613808E-1,4.1676273E0,1.9264717E0,5.9202332E0,7.644644E0,5.1186323E-2,5.364833E-1,0E0,0E0,0E0,0E0,0E0,0E0,0E0,0E0,0E0,0E0,0E0,0E0,0E0,0E0,0E0,0E0,0E0,0E0,0E0,0E0,0E0,0E0,0E0,0E0,0E0,0E0,0E0,0E0],"parents":[2147483647,0,0,1,1,2,2,3,3,4,4,5,5,6,6,8,8,9,9,10,10,11,11,12,12,13,13,14,14,15,15,16,16,17,17,18,18,19,19,20,20,21,21,22,22,23,23,24,24,25,25,26,26,27,27,28,28],"right_children":[2,4,6,8,10,12,14,-1,16,18,20,22,24,26,28,30,32,34,36,38,40,42,44,46,48,50,52,54,56,-1,-1,-1,-1,-1,-1,-1,-1,-1,-1,-1,-1,-1,-1,-1,-1,-1,-1,-1,-1,-1,-1,-1,-1,-1,-1,-1,-1],"split_conditions":[3.028052E1,-9.7850655E1,8.631E2,1.5654E3,1.01E2,1.76E2,2.14E2,2.1594785E-2,1.7755E3,1.6353E3,-9.771605E1,1.74E2,-8.798492E1,1.5E1,1.0983E3,3.025004E1,2.234E3,1.3365E3,3.0187313E1,1.8316E3,1.46E2,-7.116148E1,4.869E2,3.392884E1,4.2129646E1,1.98E2,2.02E2,1E0,1.9235E3,-1.1033522E-2,-4.226856E-4,-1.0135449E-3,4.899401E-3,7.865756E-3,-1.8054218E-4,-5.339091E-3,-1.0121097E-2,-7.194545E-3,-8.796171E-3,-1.0316302E-2,1.5494773E-3,7.3283137E-4,6.2407665E-3,-2.3890915E-3,-9.883652E-3,1.1690522E-2,8.566839E-4,8.043256E-3,2.1391034E-2,3.0711773E-4,3.5702523E-3,-3.8288592E-4,-5.911247E-3,-1.0067421E-2,6.717928E-4,-3.2789956E-3,-8.654178E-3],"split_indices":[4,5,6,6,7,7,7,0,6,6,5,7,5,8,6,4,6,6,4,6,7,5,6,4,4,7,7,3,6,0,0,0,0,0,0,0,0,0,0,0,0,0,0,0,0,0,0,0,0,0,0,0,0,0,0,0,0],"split_type":[0,0,0,0,0,0,0,0,0,0,0,0,0,0,0,0,0,0,0,0,0,0,0,0,0,0,0,0,0,0,0,0,0,0,0,0,0,0,0,0,0,0,0,0,0,0,0,0,0,0,0,0,0,0,0,0,0],"sum_hessian":[5.7021E4,8.98E2,5.6123E4,2.2E2,6.78E2,2.26E3,5.3863E4,2E0,2.18E2,1.5E2,5.28E2,1.64E3,6.2E2,5.3537E4,3.26E2,1.4E1,2.04E2,7.6E1,7.4E1,4.79E2,4.9E1,1.569E3,7.1E1,5.04E2,1.16E2,2.7315E4,2.6222E4,9.6E1,2.3E2,1.3E1,1E0,1.78E2,2.6E1,1.6E1,6E1,3.1E1,4.3E1,3.11E2,1.68E2,2.2E1,2.7E1,1.234E3,3.35E2,1.6E1,5.5E1,1.14E2,3.9E2,4.7E1,6.9E1,2.5847E4,1.468E3,2.5582E4,6.4E2,9.5E1,1E0,1.65E2,6.5E1],"tree_param":{"num_deleted":"0","num_feature":"9","num_nodes":"57","size_leaf_vector":"1"}},{"base_weights":[-2.830638E-4,-9.672237E-2,1.2534128E-3,-2.5439716E-3,-1.27184E-1,4.7852583E-2,-6.562569E-4,2.403896E-2,-1.144143E-2,-1.4859255E-1,-7.2726354E-2,1.0978045E-1,3.4920614E-2,1.2627547E-2,-7.1985093E-3,-1.887649E-1,2.660633E-3,-1.6039358E-1,-1.0832375E-1,-1.8236768E-3,-1.0626942E-1,-6.560879E-2,1.2991394E-1,8.360542E-2,-5.71744E-3,3.9468966E-2,-1.4692959E-3,4.128612E-4,-2.8851548E-2,-1.0805643E-2,-2.6346408E-3,-7.5390167E-4,4.2437217E-3,-8.590051E-3,-6.3314917E-3,-1.3418652E-3,-7.545333E-3,-7.74008E-3,3.6464438E-3,-6.878753E-3,-1.3016296E-3,-5.778685E-3,1.5363015E-2,1.2849772E-2,4.3853032E-3,9.15209E-3,2.2144457E-3,3.011565E-4,-8.734684E-3,4.121853E-4,3.1411664E-3,5.2077384E-3,-2.2781694E-4,-2.3633174E-3,2.3692465E-4,4.564519E-4,-2.3951938E-3],"categories":[],"categories_nodes":[],"categories_segments":[],"categories_sizes":[],"default_left":[0,0,0,0,0,0,0,0,0,0,0,0,0,0,0,0,0,0,0,0,0,0,0,0,0,0,0,0,0,0,0,0,0,0,0,0,0,0,0,0,0,0,0,0,0,0,0,0,0,0,0,0,0,0,0,0,0],"id":7,"left_children":[1,3,5,7,9,11,13,-1,15,17,19,21,23,25,27,29,31,33,35,37,39,41,43,45,47,49,51,53,55,-1,-1,-1,-1,-1,-1,-1,-1,-1,-1,-1,-1,-1,-1,-1,-1,-1,-1,-1,-1,-1,-1,-1,-1,-1,-1,-1,-1],"loss_changes":[8.466052E0,2.5701456E0,5.004685E0,9.515773E-1,7.784805E-1,1.7692466E0,4.6952744E0,0E0,5.4313827E-1,2.131033E-1,4.588169E-1,1.3574414E0,3.6269877E0,6.745804E0,5.965945E0,4.8153102E-2,2.9586908E-1,1.2190819E-1,3.880521E-1,7.3172534E-1,3.2547295E-1,7.807261E-1,1.8172579E0,3.252409E0,1.9849298E0,4.476322E0,3.8121862E0,5.5244346E0,6.813304E0,0E0,0E0,0E0,0E0,0E0,0E0,0E0,0E0,0E0,0E0,0E0,0E0,0E0,0E0,0E0,0E0,0E0,0E0,0E0,0E0,0E0,0E0,0E0,0E0,0E0,0E0,0E0,0E0],"parents":[2147483647,0,0,1,1,2,2,3,3,4,4,5,5,6,6,8,8,9,9,10,10,11,11,12,12,13,13,14,14,15,15,16,16,17,17,18,18,19,19,20,20,21,21,22,22,23,23,24,24,25,25,26,26,27,27,28,28],"right_children":[2,4,6,8,10,12,14,-1,16,18,20,22,24,26,28,30,32,34,36,38,40,42,44,46,48,50,52,54,56,-1,-1,-1,-1,-1,-1,-1,-1,-1,-1,-1,-1,-1,-1,-1,-1,-1,-1,-1,-1,-1,-1,-1,-1,-1,-1,-1,-1],"split_conditions":[3.028052E1,-9.7850655E1,8.631E2,1.5886E3,3.025004E1,1.3E1,-1.1797845E2,2.403896E-2,1.7931E3,1.5E1,-9.7731094E1,4.21064E1,3.427202E1,1.5E1,2.2927E3,3.025004E1,2.189E3,9.9E1,-9.7731094E1,1.222E3,-9.771605E1,-7.1454666E1,4.2179356E1,6.984E2,-7.1132195E1,-1.22317566E2,-1.2246973E2,-1.1787553E2,1.3E1,-1.0805643E-2,-2.6346408E-3,-7.5390167E-4,4.2437217E-3,-8.590051E-3,-6.3314917E-3,-1.3418652E-3,-7.545333E-3,-7.74008E-3,3.6464438E-3,-6.878753E-3,-1.3016296E-3,-5.778685E-3,1.5363015E-2,1.2849772E-2,4.3853032E-3,9.15209E-3,2.2144457E-3,3.011565E-4,-8.734684E-3,4.121853E-4,3.1411664E-3,5.2077384E-3,-2.2781694E-4,-2.3633174E-3,2.3692465E-4,4.564519E-4,-2.3951938E-3],"split_indices":[4,5,6,6,4,8,5,0,6,8,5,4,4,8,6,4,6,2,5,6,5,5,4,6,5,5,5,5,8,0,0,0,0,0,0,0,0,0,0,0,0,0,0,0,0,0,0,0,0,0,0,0,0,0,0,0,0],"split_type":[0,0,0,0,0,0,0,0,0,0,0,0,0,0,0,0,0,0,0,0,0,0,0,0,0,0,0,0,0,0,0,0,0,0,0,0,0,0,0,0,0,0,0,0,0,0,0,0,0,0,0,0,0,0,0,0,0],"sum_hessian":[5.7133E4,8.95E2,5.6238E4,2.19E2,6.76E2,2.213E3,5.4025E4,3E0,2.16E2,4.84E2,1.92E2,3.81E2,1.832E3,1.7827E4,3.6198E4,1.5E1,2.01E2,3.72E2,1.12E2,6.2E1,1.3E2,3.9E1,3.42E2,8.33E2,9.99E2,6.138E3,1.1689E4,2.6784E4,9.414E3,1.2E1,3E0,1.66E2,3.5E1,2.75E2,9.7E1,3.9E1,7.3E1,2E1,4.2E1,9.3E1,3.7E1,3.5E1,4E0,8.4E1,2.58E2,2.35E2,5.98E2,9.35E2,6.4E1,2.627E3,3.511E3,3.31E2,1.1358E4,2.227E3,2.4557E4,3.145E3,6.269E3],"tree_param":{"num_deleted":"0","num_feature":"9","num_nodes":"57","size_leaf_vector":"1"}},{"base_weights":[7.79711E-4,-7.986776E-2,2.361585E-3,1.2329223E-2,-1.08343735E-1,8.890719E-2,1.3147332E-3,-1.2013554E-2,1.3896586E-1,-4.82775E-2,-1.2231764E-1,1.3459086E-1,5.8419716E-2,-2.527156E-2,5.131044E-3,2.1910843E-2,-2.5854245E-2,7.148441E-3,3.9271057E-2,3.218775E-2,-1.4222614E-1,-1.394118E-1,-8.1176914E-2,2.5694124E-2,2.0282666E-1,-1.0192362E-2,1.487781E-1,-5.629717E-3,-1.429587E-1,5.9979E-3,-1.1917847E-1,2.7637652E-3,-3.6791784E-3,3.2990805E-3,-1.6298151E-3,-1.2327448E-3,4.178074E-3,1.8746316E-3,-6.442328E-3,-4.2015454E-3,-9.111332E-3,-6.7037344E-3,-1.118968E-2,-8.937883E-3,1.0071507E-3,-4.3855696E-3,2.2896468E-3,8.511745E-3,1.5698986E-2,-7.8070024E-3,7.9608645E-4,1.91837E-2,2.941353E-3,-7.189205E-4,8.819147E-3,7.701471E-4,-8.226908E-3,-1.1977116E-4,1.0407565E-3,-5.2572754E-3,-8.636611E-3],"categories":[],"categories_nodes":[],"categories_segments":[],"categories_sizes":[],"default_left":[0,0,0,0,0,0,0,0,0,0,0,0,0,0,0,0,0,0,0,0,0,0,0,0,0,0,0,0,0,0,0,0,0,0,0,0,0,0,0,0,0,0,0,0,0,0,0,0,0,0,0,0,0,0,0,0,0,0,0,0,0],"id":8,"left_children":[1,3,5,7,9,11,13,15,17,19,21,23,25,27,29,31,33,-1,35,37,39,41,43,45,47,49,51,53,55,57,59,-1,-1,-1,-1,-1,-1,-1,-1,-1,-1,-1,-1,-1,-1,-1,-1,-1,-1,-1,-1,-1,-1,-1,-1,-1,-1,-1,-1,-1,-1],"loss_changes":[7.281482E0,2.8840241E0,5.0715127E0,8.0316824E-1,6.983166E-1,9.239073E-1,5.6119685E0,1.0339511E-1,1.1146545E-2,1.214114E0,4.6690464E-1,1.9787741E0,2.4999857E0,1.6048582E1,5.2127743E0,2.07979E-1,9.874011E-2,0E0,1.0554123E-2,7.9152144E-2,1.569475E-1,1.8571568E-1,2.000749E0,2.410654E-1,5.40668E-1,8.79083E-1,3.6538982E0,9.478747E0,3.3959713E0,5.9738355E0,2.3359585E-1,0E0,0E0,0E0,0E0,0E0,0E0,0E0,0E0,0E0,0E0,0E0,0E0,0E0,0E0,0E0,0E0,0E0,0E0,0E0,0E0,0E0,0E0,0E0,0E0,0E0,0E0,0E0,0E0,0E0,0E0],"parents":[2147483647,0,0,1,1,2,2,3,3,4,4,5,5,6,6,7,7,8,8,9,9,10,10,11,11,12,12,13,13,14,14,15,15,16,16,18,18,19,19,20,20,21,21,22,22,23,23,24,24,25,25,26,26,27,27,28,28,29,29,30,30],"right_children":[2,4,6,8,10,12,14,16,18,20,22,24,26,28,30,32,34,-1,36,38,40,42,44,46,48,50,52,54,56,58,60,-1,-1,-1,-1,-1,-1,-1,-1,-1,-1,-1,-1,-1,-1,-1,-1,-1,-1,-1,-1,-1,-1,-1,-1,-1,-1,-1,-1,-1,-1],"split_conditions":[3.0312185E1,-9.7850655E1,3.054274E1,3.028052E1,1.01E2,-9.778072E1,3.380075E1,3.0187313E1,4E0,-9.7731094E1,-9.7731094E1,-9.791953E1,-9.7731094E1,1.8E2,2.14E2,-9.791953E1,2.8E1,7.148441E-3,8.7E1,1E1,3.0187313E1,-9.776042E1,1.46E2,5.4E1,3.0515875E1,1.3E2,3.0515875E1,-1.17632E2,-1.1797845E2,1.7E2,4.2199867E1,2.7637652E-3,-3.6791784E-3,3.2990805E-3,-1.6298151E-3,-1.2327448E-3,4.178074E-3,1.8746316E-3,-6.442328E-3,-4.2015454E-3,-9.111332E-3,-6.7037344E-3,-1.118968E-2,-8.937883E-3,1.0071507E-3,-4.3855696E-3,2.2896468E-3,8.511745E-3,1.5698986E-2,-7.8070024E-3,7.9608645E-4,1.91837E-2,2.941353E-3,-7.189205E-4,8.819147E-3,7.701471E-4,-8.226908E-3,-1.1977116E-4,1.0407565E-3,-5.2572754E-3,-8.636611E-3],"split_indices":[4,5,4,4,7,5,4,4,0,5,5,5,5,7,7,5,2,0,2,0,4,5,7,2,4,7,4,5,5,7,4,0,0,0,0,0,0,0,0,0,0,0,0,0,0,0,0,0,0,0,0,0,0,0,0,0,0,0,0,0,0],"split_type":[0,0,0,0,0,0,0,0,0,0,0,0,0,0,0,0,0,0,0,0,0,0,0,0,0,0,0,0,0,0,0,0,0,0,0,0,0,0,0,0,0,0,0,0,0,0,0,0,0,0,0,0,0,0,0,0,0,0,0,0,0],"sum_hessian":[5.7074E4,1.097E3,5.5977E4,2.59E2,8.38E2,6.68E2,5.5309E4,2.18E2,4.1E1,1.59E2,6.79E2,2.66E2,4.02E2,6.942E3,4.8367E4,6.3E1,1.55E2,3.9E1,2E0,8.6E1,7.3E1,4.78E2,2.01E2,1.03E2,1.63E2,2.29E2,1.73E2,5.95E3,9.92E2,4.8033E4,3.34E2,4.7E1,1.6E1,1E1,1.45E2,1E0,1E0,8.4E1,2E0,3.1E1,4.2E1,4.52E2,2.6E1,1.02E2,9.9E1,1.5E1,8.8E1,1.28E2,3.5E1,3.4E1,1.95E2,4.7E1,1.26E2,5.678E3,2.72E2,1.19E2,8.73E2,3.0664E4,1.7369E4,2.67E2,6.7E1],"tree_param":{"num_deleted":"0","num_feature":"9","num_nodes":"61","size_leaf_vector":"1"}},{"base_weights":[-8.024622E-5,-7.717874E-2,1.4808108E-3,1.5046124E-2,-1.0622402E-1,8.838362E-2,4.299146E-4,2.3198618E-2,8.314708E-3,-7.642015E-2,-1.3456723E-1,3.6273056E-1,7.626178E-2,5.7198312E-2,-9.856696E-4,-1.6814025E-1,2.6286379E-2,3.684161E-2,-1.0061041E-1,-1.2036918E-1,-1.6977862E-1,7.1078385E-3,2.0225033E-2,6.6062436E-2,3.1497476E-1,1.502185E-1,8.463851E-3,4.4083507E-3,-1.7073201E-2,-1.016598E-2,-4.1504065E-3,1.2329283E-4,5.8424715E-3,6.4088227E-3,6.492307E-5,-6.537275E-3,-2.0382262E-3,-6.131708E-3,4.376209E-3,-8.97435E-3,-5.5160327E-3,6.0654967E-3,1.2141092E-3,-7.6009124E-3,2.4751289E-2,1.5771449E-2,6.9416487E-3,-2.033471E-3,3.4083016E-3,-8.5302815E-4,5.2175735E-4,1.4428302E-3,-1.4029986E-3],"categories":[],"categories_nodes":[],"categories_segments":[],"categories_sizes":[],"default_left":[0,0,0,0,0,0,0,0,0,0,0,0,0,0,0,0,0,0,0,0,0,0,0,0,0,0,0,0,0,0,0,0,0,0,0,0,0,0,0,0,0,0,0,0,0,0,0,0,0,0,0,0,0],"id":9,"left_children":[1,3,5,7,9,11,13,-1,15,17,19,21,23,25,27,29,31,33,35,37,39,-1,-1,41,43,45,47,49,51,-1,-1,-1,-1,-1,-1,-1,-1,-1,-1,-1,-1,-1,-1,-1,-1,-1,-1,-1,-1,-1,-1,-1,-1],"loss_changes":[6.8650517E0,3.033883E0,5.105807E0,8.1810147E-1,7.170353E-1,2.1938314E0,4.4392476E0,0E0,8.574701E-1,1.1599154E0,1.9953442E-1,2.0047235E-1,1.5398452E0,6.0914683E0,4.6771536E0,5.799514E-2,5.282404E-1,2.4330816E-1,6.2227464E-1,1.600008E-1,5.1776886E-2,0E0,0E0,1.4189391E0,2.2613997E0,8.2523537E-1,2.5929317E0,5.2229548E0,6.8303385E0,0E0,0E0,0E0,0E0,0E0,0E0,0E0,0E0,0E0,0E0,0E0,0E0,0E0,0E0,0E0,0E0,0E0,0E0,0E0,0E0,0E0,0E0,0E0,0E0],"parents":[2147483647,0,0,1,1,2,2,3,3,4,4,5,5,6,6,8,8,9,9,10,10,11,11,12,12,13,13,14,14,15,15,16,16,17,17,18,18,19,19,20,20,23,23,24,24,25,25,26,26,27,27,28,28],"right_children":[2,4,6,8,10,12,14,-1,16,18,20,22,24,26,28,30,32,34,36,38,40,-1,-1,42,44,46,48,50,52,-1,-1,-1,-1,-1,-1,-1,-1,-1,-1,-1,-1,-1,-1,-1,-1,-1,-1,-1,-1,-1,-1,-1,-1],"split_conditions":[3.0312185E1,-9.7850655E1,3.054274E1,1.5886E3,1.5578E3,6.984E2,-1.224535E2,2.3198618E-2,1.819E3,1.01E2,1.9963E3,-9.7731094E1,-9.7694016E1,2.7089E3,2.2775E3,3.025004E1,3.028052E1,1.3365E3,1.46E2,1.9899E3,-9.778072E1,7.1078385E-3,2.0225033E-2,-9.778072E1,8.936E2,1.18E2,1.32E2,3.386152E1,-1.22246994E2,-1.016598E-2,-4.1504065E-3,1.2329283E-4,5.8424715E-3,6.4088227E-3,6.492307E-5,-6.537275E-3,-2.0382262E-3,-6.131708E-3,4.376209E-3,-8.97435E-3,-5.5160327E-3,6.0654967E-3,1.2141092E-3,-7.6009124E-3,2.4751289E-2,1.5771449E-2,6.9416487E-3,-2.033471E-3,3.4083016E-3,-8.5302815E-4,5.2175735E-4,1.4428302E-3,-1.4029986E-3],"split_indices":[4,5,4,6,6,6,5,0,6,7,6,5,5,6,6,4,4,6,7,6,5,0,0,5,6,7,7,4,5,0,0,0,0,0,0,0,0,0,0,0,0,0,0,0,0,0,0,0,0,0,0,0,0],"split_type":[0,0,0,0,0,0,0,0,0,0,0,0,0,0,0,0,0,0,0,0,0,0,0,0,0,0,0,0,0,0,0,0,0,0,0,0,0,0,0,0,0,0,0,0,0,0,0,0,0,0,0,0,0],"sum_hessian":[5.7038E4,1.131E3,5.5907E4,2.71E2,8.6E2,6.67E2,5.524E4,3E0,2.68E2,4.21E2,4.39E2,2.7E1,6.4E2,1.343E3,5.3897E4,2.4E1,2.44E2,7.4E1,3.47E2,3.16E2,1.23E2,5E0,2.2E1,6.15E2,2.5E1,4.61E2,8.82E2,4.0364E4,1.3533E4,1.6E1,8E0,1.94E2,5E1,2E1,5.4E1,2.3E2,1.17E2,3.13E2,3E0,1.04E2,1.9E1,2.64E2,3.51E2,7E0,1.8E1,2.8E1,4.33E2,4.84E2,3.98E2,8.847E3,3.1517E4,2.612E3,1.0921E4],"tree_param":{"num_deleted":"0","num_feature":"9","num_nodes":"53","size_leaf_vector":"1"}},{"base_weights":[-3.8198568E-4,-7.447651E-2,1.0735892E-3,1.0388125E-2,-1.01149075E-1,4.6454307E-2,-8.1581133E-4,-2.8041497E-2,9.1194175E-2,-1.4663634E-1,-8.51129E-2,2.5419429E-2,1.0316794E-1,-9.595201E-5,-1.1283574E-1,1.9354701E-2,-3.4919266E-2,4.3139707E-2,1.4949471E-1,1.3577538E-2,-1.4984442E-1,-1.2558421E-1,-7.472092E-2,3.3890475E-2,-1.5548968E-1,2.4881113E-1,5.353031E-2,8.2346186E-2,-9.251905E-4,-1.7786165E-1,-8.5230574E-2,-8.090993E-3,-7.931785E-4,5.1879263E-3,-6.4023114E-3,1.780897E-3,7.911896E-3,4.1943355E-3,-7.621646E-3,-7.3913336E-3,-3.0852533E-3,-2.2920691E-3,-5.311038E-3,5.330264E-4,5.92633E-3,-1.7841606E-3,-9.165677E-3,9.921027E-3,2.0967115E-2,1.102651E-3,1.0427785E-2,3.4780602E-3,1.8720059E-2,-1.1867948E-3,1.161205E-4,-9.811988E-3,-6.391272E-3,-2.5650584E-3,-7.8635095E-3],"categories":[],"categories_nodes":[],"categories_segments":[],"categories_sizes":[],"default_left":[0,0,0,0,0,0,0,0,0,0,0,0,0,0,0,0,0,0,0,0,0,0,0,0,0,0,0,0,0,0,0,0,0,0,0,0,0,0,0,0,0,0,0,0,0,0,0,0,0,0,0,0,0,0,0,0,0,0,0],"id":10,"left_children":[1,3,5,7,9,11,13,15,17,19,21,23,25,27,29,-1,31,33,35,-1,37,39,41,43,45,47,49,51,53,55,57,-1,-1,-1,-1,-1,-1,-1,-1,-1,-1,-1,-1,-1,-1,-1,-1,-1,-1,-1,-1,-1,-1,-1,-1,-1,-1,-1,-1],"loss_changes":[6.1352425E0,2.4819102E0,4.7836895E0,8.1926316E-1,5.9587383E-1,2.6576881E0,4.319154E0,5.2459896E-1,2.3168695E-1,3.3047152E-1,2.509532E-1,2.5001621E0,4.3459997E0,3.6384869E0,5.987482E-1,0E0,4.2545068E-1,5.1138616E-1,3.219855E-2,0E0,1.428647E-1,1.6848207E-1,4.4543266E-1,3.0579762E0,2.3680294E-1,1.2315474E0,2.1961813E0,1.9529321E0,3.903482E0,6.779218E-2,5.8344316E-1,0E0,0E0,0E0,0E0,0E0,0E0,0E0,0E0,0E0,0E0,0E0,0E0,0E0,0E0,0E0,0E0,0E0,0E0,0E0,0E0,0E0,0E0,0E0,0E0,0E0,0E0,0E0,0E0],"parents":[2147483647,0,0,1,1,2,2,3,3,4,4,5,5,6,6,7,7,8,8,9,9,10,10,11,11,12,12,13,13,14,14,16,16,17,17,18,18,20,20,21,21,22,22,23,23,24,24,25,25,26,26,27,27,28,28,29,29,30,30],"right_children":[2,4,6,8,10,12,14,16,18,20,22,24,26,28,30,-1,32,34,36,-1,38,40,42,44,46,48,50,52,54,56,58,-1,-1,-1,-1,-1,-1,-1,-1,-1,-1,-1,-1,-1,-1,-1,-1,-1,-1,-1,-1,-1,-1,-1,-1,-1,-1,-1,-1],"split_conditions":[3.0312185E1,-9.7850655E1,8.631E2,2.1293E3,-9.781074E1,1.76E2,2.14E2,1.5654E3,3.0215637E1,2.96262E2,1.2691E3,1.74E2,6.479E2,3.054274E1,1.0983E3,1.9354701E-2,1.819E3,3.0187313E1,2.1365E3,1.3577538E-2,1.4065E3,2.3755693E4,1.5578E3,-7.116148E1,4.869E2,4.2124256E1,-8.798492E1,-9.7694016E1,3.380075E1,-8.796643E1,1.9107E3,-8.090993E-3,-7.931785E-4,5.1879263E-3,-6.4023114E-3,1.780897E-3,7.911896E-3,4.1943355E-3,-7.621646E-3,-7.3913336E-3,-3.0852533E-3,-2.2920691E-3,-5.311038E-3,5.330264E-4,5.92633E-3,-1.7841606E-3,-9.165677E-3,9.921027E-3,2.0967115E-2,1.102651E-3,1.0427785E-2,3.4780602E-3,1.8720059E-2,-1.1867948E-3,1.161205E-4,-9.811988E-3,-6.391272E-3,-2.5650584E-3,-7.8635095E-3],"split_indices":[4,5,6,6,5,7,7,6,4,1,6,7,6,4,6,0,6,4,6,0,6,1,6,5,6,4,5,5,4,5,6,0,0,0,0,0,0,0,0,0,0,0,0,0,0,0,0,0,0,0,0,0,0,0,0,0,0,0,0],"split_type":[0,0,0,0,0,0,0,0,0,0,0,0,0,0,0,0,0,0,0,0,0,0,0,0,0,0,0,0,0,0,0,0,0,0,0,0,0,0,0,0,0,0,0,0,0,0,0,0,0,0,0,0,0,0,0,0,0,0,0],"sum_hessian":[5.6885E4,1.095E3,5.579E4,2.62E2,8.33E2,2.229E3,5.3561E4,1.78E2,8.4E1,2.15E2,6.18E2,1.627E3,6.02E2,5.322E4,3.41E2,2E0,1.76E2,4.7E1,3.7E1,1E0,2.14E2,1.24E2,4.94E2,1.555E3,7.2E1,1.52E2,4.5E2,5.29E2,5.2691E4,1E2,2.41E2,2.2E1,1.54E2,3.5E1,1.2E1,3E0,3.4E1,2E0,2.12E2,9.1E1,3.3E1,2.59E2,2.35E2,1.221E3,3.34E2,1.4E1,5.8E1,1.19E2,3.3E1,3.75E2,7.5E1,5.08E2,2.1E1,6.566E3,4.6125E4,7.1E1,2.9E1,1.65E2,7.6E1],"tree_param":{"num_deleted":"0","num_feature":"9","num_nodes":"59","size_leaf_vector":"1"}},{"base_weights":[-1.6650713E-4,-7.333818E-2,1.0190154E-3,-3.5072027E-3,-9.569925E-2,1.6839767E-3,-1.1026552E-1,2.1945938E-2,-1.1572028E-2,-4.5759965E-2,-1.1105853E-1,4.1474998E-2,2.8179831E-5,-1.6646299E-1,-8.622394E-2,-1.6232185E-1,1.9184126E-3,4.021889E-2,-1.322293E-1,-1.1808896E-1,-3.8440607E-2,2.050836E-2,9.902848E-2,5.221943E-4,-1.13748595E-1,-1.8817116E-1,-1.0160523E-1,-5.678808E-2,-1.6444549E-1,-9.188811E-3,-2.0643775E-3,4.625782E-3,-6.596075E-4,7.979528E-3,5.769992E-4,-3.7707768E-3,-8.447627E-3,4.94093E-3,-5.9601627E-3,-9.016245E-3,3.036808E-3,1.3838693E-3,-6.5692007E-3,2.915985E-3,1.35318255E-2,-7.232567E-4,2.0703928E-4,6.7517566E-3,-8.8841515E-3,-7.452397E-3,-1.0159344E-2,-6.053781E-3,4.1397972E-4,-3.6538695E-3,-1.2810383E-4,-8.335221E-3,-3.1473085E-3],"categories":[],"categories_nodes":[],"categories_segments":[],"categories_sizes":[],"default_left":[0,0,0,0,0,0,0,0,0,0,0,0,0,0,0,0,0,0,0,0,0,0,0,0,0,0,0,0,0,0,0,0,0,0,0,0,0,0,0,0,0,0,0,0,0,0,0,0,0,0,0,0,0,0,0,0,0],"id":11,"left_children":[1,3,5,7,9,11,13,-1,15,17,19,21,23,25,27,29,31,33,35,37,39,41,43,45,47,49,51,53,55,-1,-1,-1,-1,-1,-1,-1,-1,-1,-1,-1,-1,-1,-1,-1,-1,-1,-1,-1,-1,-1,-1,-1,-1,-1,-1,-1,-1],"loss_changes":[4.956606E0,1.4221864E0,4.161053E0,7.971947E-1,5.241704E-1,3.6826882E0,4.369068E-1,0E0,4.4568768E-1,1.2245817E0,2.6451254E-1,2.692537E0,3.0163157E0,1.2026715E-1,5.340557E-1,3.915316E-2,2.7775344E-1,2.823046E-1,1.58342E-1,1.2779474E-1,6.863901E-1,1.7872882E0,4.147845E0,2.897838E0,3.71415E0,1.26001835E-2,5.8768958E-2,1.5262437E-1,4.1804314E-3,0E0,0E0,0E0,0E0,0E0,0E0,0E0,0E0,0E0,0E0,0E0,0E0,0E0,0E0,0E0,0E0,0E0,0E0,0E0,0E0,0E0,0E0,0E0,0E0,0E0,0E0,0E0,0E0],"parents":[2147483647,0,0,1,1,2,2,3,3,4,4,5,5,6,6,8,8,9,9,10,10,11,11,12,12,13,13,14,14,15,15,16,16,17,17,18,18,19,19,20,20,21,21,22,22,23,23,24,24,25,25,26,26,27,27,28,28],"right_children":[2,4,6,8,10,12,14,-1,16,18,20,22,24,26,28,30,32,34,36,38,40,42,44,46,48,50,52,54,56,-1,-1,-1,-1,-1,-1,-1,-1,-1,-1,-1,-1,-1,-1,-1,-1,-1,-1,-1,-1,-1,-1,-1,-1,-1,-1,-1,-1],"split_conditions":[3.028052E1,-9.7850655E1,2.14E2,1.5886E3,1.01E2,8.631E2,1.0983E3,2.1945938E-2,1.8064E3,-9.7731094E1,-9.771605E1,1.76E2,3.6197E3,-8.796643E1,1.9689E3,3.025004E1,1.8904E3,1.3365E3,3.0187313E1,2.96262E2,1.46E2,1.74E2,-8.811002E1,3.386152E1,1.49E2,3.880896E3,2E0,2E0,7.57405E4,-9.188811E-3,-2.0643775E-3,4.625782E-3,-6.596075E-4,7.979528E-3,5.769992E-4,-3.7707768E-3,-8.447627E-3,4.94093E-3,-5.9601627E-3,-9.016245E-3,3.036808E-3,1.3838693E-3,-6.5692007E-3,2.915985E-3,1.35318255E-2,-7.232567E-4,2.0703928E-4,6.7517566E-3,-8.8841515E-3,-7.452397E-3,-1.0159344E-2,-6.053781E-3,4.1397972E-4,-3.6538695E-3,-1.2810383E-4,-8.335221E-3,-3.1473085E-3],"split_indices":[4,5,7,6,7,6,6,0,6,5,5,7,6,5,6,4,6,6,4,1,7,7,5,4,7,1,0,0,1,0,0,0,0,0,0,0,0,0,0,0,0,0,0,0,0,0,0,0,0,0,0,0,0,0,0,0,0],"split_type":[0,0,0,0,0,0,0,0,0,0,0,0,0,0,0,0,0,0,0,0,0,0,0,0,0,0,0,0,0,0,0,0,0,0,0,0,0,0,0,0,0,0,0,0,0,0,0,0,0,0,0,0,0,0,0,0,0],"sum_hessian":[5.7137E4,9.1E2,5.6227E4,2.21E2,6.89E2,5.5894E4,3.33E2,3E0,2.18E2,1.63E2,5.26E2,2.232E3,5.3662E4,9.8E1,2.35E2,1.7E1,2.01E2,8.2E1,8.1E1,4.79E2,4.7E1,1.637E3,5.95E2,5.3431E4,2.31E2,7.2E1,2.6E1,1.72E2,6.3E1,1.4E1,3E0,2.8E1,1.73E2,1.5E1,6.7E1,3.3E1,4.8E1,2E0,4.77E2,1.9E1,2.8E1,1.564E3,7.3E1,4.82E2,1.13E2,1.0391E4,4.304E4,4.7E1,1.84E2,2.3E1,4.9E1,2.2E1,4E0,1.32E2,4E1,6.1E1,2E0],"tree_param":{"num_deleted":"0","num_feature":"9","num_nodes":"57","size_leaf_vector":"1"}},{"base_weights":[3.628535E-4,-7.501252E-2,1.556681E-3,-6.279524E-3,-9.774263E-2,4.2316258E-2,-2.9412366E-4,2.1122966E-2,-1.4081697E-2,-1.1673765E-1,-5.2388873E-2,4.5837224E-2,-2.4182788E-1,8.0017485E-3,-9.037115E-3,-1.4754081E-1,1.5713044E-3,-1.0243604E-1,-1.3569894E-1,5.589286E-2,-8.084105E-2,3.7142772E-2,2.0712484E-1,-1.2831637E-1,-1.3242962E-2,3.431999E-2,9.516132E-4,-6.000814E-3,-8.38899E-2,-9.180406E-3,-3.5517605E-3,5.0940635E-3,-8.529258E-4,-3.4194689E-3,-6.239194E-3,-6.8908753E-3,-3.783033E-3,-1.0414618E-2,3.7154711E-3,-6.369322E-3,-5.243547E-4,3.645268E-3,6.133441E-4,-4.001267E-3,1.5030721E-2,-1.0042875E-2,7.6732575E-3,6.675813E-4,4.0747146E-3,5.935593E-4,-7.037571E-4,-1.2307682E-4,-3.6855105E-3,9.672938E-4,-8.940108E-3],"categories":[],"categories_nodes":[],"categories_segments":[],"categories_sizes":[],"default_left":[0,0,0,0,0,0,0,0,0,0,0,0,0,0,0,0,0,0,0,0,0,0,0,0,0,0,0,0,0,0,0,0,0,0,0,0,0,0,0,0,0,0,0,0,0,0,0,0,0,0,0,0,0,0,0],"id":12,"left_children":[1,3,5,7,9,11,13,-1,15,17,19,21,23,25,27,29,31,33,35,37,39,41,43,45,-1,47,49,51,53,-1,-1,-1,-1,-1,-1,-1,-1,-1,-1,-1,-1,-1,-1,-1,-1,-1,-1,-1,-1,-1,-1,-1,-1,-1,-1],"loss_changes":[5.1308036E0,1.388278E0,4.234273E0,7.4855995E-1,5.6936264E-1,2.450211E0,3.8943927E0,0E0,4.5773062E-1,1.1355305E-1,6.176078E-1,3.3704658E0,4.4443965E-2,5.1119776E0,5.940935E0,5.042243E-2,3.6988297E-1,1.9842243E-1,1.48842335E-2,2.1982424E-1,5.160593E-1,2.0336812E0,3.3260584E0,1.7390984E-1,0E0,5.7568574E0,3.5659144E0,6.0205927E0,9.987967E0,0E0,0E0,0E0,0E0,0E0,0E0,0E0,0E0,0E0,0E0,0E0,0E0,0E0,0E0,0E0,0E0,0E0,0E0,0E0,0E0,0E0,0E0,0E0,0E0,0E0,0E0],"parents":[2147483647,0,0,1,1,2,2,3,3,4,4,5,5,6,6,8,8,9,9,10,10,11,11,12,12,13,13,14,14,15,15,16,16,17,17,18,18,19,19,20,20,21,21,22,22,23,23,25,25,26,26,27,27,28,28],"right_children":[2,4,6,8,10,12,14,-1,16,18,20,22,24,26,28,30,32,34,36,38,40,42,44,46,-1,48,50,52,54,-1,-1,-1,-1,-1,-1,-1,-1,-1,-1,-1,-1,-1,-1,-1,-1,-1,-1,-1,-1,-1,-1,-1,-1,-1,-1],"split_conditions":[3.028052E1,-9.7850655E1,8.798E2,1.5886E3,3.025004E1,2.06E2,1.5E1,2.1122966E-2,1.819E3,1.8316E3,1.01E2,1.87E2,4.2224476E1,-1.1799183E2,-8.794366E1,3.025004E1,1.8904E3,3.0215637E1,5E0,1.2011E3,1.46E2,3.427202E1,4.2129646E1,8.454E2,-1.3242962E-2,1.78E2,2.0732E3,1.96E2,4.1962254E1,-9.180406E-3,-3.5517605E-3,5.0940635E-3,-8.529258E-4,-3.4194689E-3,-6.239194E-3,-6.8908753E-3,-3.783033E-3,-1.0414618E-2,3.7154711E-3,-6.369322E-3,-5.243547E-4,3.645268E-3,6.133441E-4,-4.001267E-3,1.5030721E-2,-1.0042875E-2,7.6732575E-3,6.675813E-4,4.0747146E-3,5.935593E-4,-7.037571E-4,-1.2307682E-4,-3.6855105E-3,9.672938E-4,-8.940108E-3],"split_indices":[4,5,6,6,4,7,8,0,6,6,7,7,4,5,5,4,6,4,0,6,7,4,4,6,0,7,6,7,4,0,0,0,0,0,0,0,0,0,0,0,0,0,0,0,0,0,0,0,0,0,0,0,0,0,0],"split_type":[0,0,0,0,0,0,0,0,0,0,0,0,0,0,0,0,0,0,0,0,0,0,0,0,0,0,0,0,0,0,0,0,0,0,0,0,0,0,0,0,0,0,0,0,0,0,0,0,0,0,0,0,0,0,0],"sum_hessian":[5.7016E4,8.88E2,5.6128E4,2.21E2,6.67E2,2.437E3,5.3691E4,3E0,2.18E2,4.69E2,1.98E2,2.408E3,2.9E1,2.755E4,2.6141E4,2.2E1,1.96E2,2.71E2,1.98E2,4.1E1,1.57E2,2.286E3,1.22E2,6E0,2.3E1,5.82E3,2.173E4,2.5123E4,1.018E3,1.4E1,8E0,3E1,1.66E2,1.09E2,1.62E2,1.9E2,8E0,2E0,3.9E1,9.4E1,6.3E1,9.37E2,1.349E3,3E1,9.2E1,5E0,1E0,4.03E3,1.79E3,1.2585E4,9.145E3,2.3876E4,1.247E3,4.88E2,5.3E2],"tree_param":{"num_deleted":"0","num_feature":"9","num_nodes":"55","size_leaf_vector":"1"}},{"base_weights":[-5.228243E-5,-6.197384E-2,1.1942986E-3,1.3902085E-2,-8.5181475E-2,8.314378E-2,1.8515975E-4,2.0330856E-2,7.876373E-3,-5.3664606E-2,-9.815313E-2,3.3265224E-1,7.07894E-2,8.111178E-3,-8.277232E-3,-3.785747E-2,6.798339E-2,-2.7340127E-2,-1.1892098E-1,-1.3423213E-1,-7.832594E-2,6.544893E-3,1.8258305E-2,1.2214697E-1,3.4948412E-2,3.2344595E-2,1.7751129E-3,-4.306644E-3,-9.62597E-2,-8.167925E-3,-1.0293862E-3,1.1168777E-3,7.593488E-3,-3.6779344E-3,1.0097334E-3,-2.9697153E-3,-7.84023E-3,-1.072704E-2,-5.766246E-3,-5.521422E-3,1.4825014E-3,9.22412E-3,-5.6305227E-5,-8.77064E-3,2.594561E-3,-9.849733E-5,3.0027784E-3,1.2869005E-3,-3.768698E-4,-8.17909E-4,1.1777952E-3,-5.40017E-3,1.1344591E-2],"categories":[],"categories_nodes":[],"categories_segments":[],"categories_sizes":[],"default_left":[0,0,0,0,0,0,0,0,0,0,0,0,0,0,0,0,0,0,0,0,0,0,0,0,0,0,0,0,0,0,0,0,0,0,0,0,0,0,0,0,0,0,0,0,0,0,0,0,0,0,0,0,0],"id":13,"left_children":[1,3,5,7,9,11,13,-1,15,17,19,21,23,25,27,29,31,33,35,37,39,-1,-1,41,43,45,47,49,51,-1,-1,-1,-1,-1,-1,-1,-1,-1,-1,-1,-1,-1,-1,-1,-1,-1,-1,-1,-1,-1,-1,-1,-1],"loss_changes":[4.4277835E0,1.994524E0,4.6501164E0,6.262564E-1,3.491845E-1,2.084898E0,3.7257748E0,0E0,7.2554094E-1,4.3479794E-1,4.2799282E-1,1.6211462E-1,1.1977122E0,4.4040594E0,9.384661E0,3.2174253E-1,4.3312085E-1,4.0353465E-1,1.5530813E-1,3.0323553E-1,1.3828604E0,0E0,0E0,2.059594E0,1.384849E0,5.6531553E0,5.0745087E0,8.6321125E0,4.4267015E0,0E0,0E0,0E0,0E0,0E0,0E0,0E0,0E0,0E0,0E0,0E0,0E0,0E0,0E0,0E0,0E0,0E0,0E0,0E0,0E0,0E0,0E0,0E0,0E0],"parents":[2147483647,0,0,1,1,2,2,3,3,4,4,5,5,6,6,8,8,9,9,10,10,11,11,12,12,13,13,14,14,15,15,16,16,17,17,18,18,19,19,20,20,23,23,24,24,25,25,26,26,27,27,28,28],"right_children":[2,4,6,8,10,12,14,-1,16,18,20,22,24,26,28,30,32,34,36,38,40,-1,-1,42,44,46,48,50,52,-1,-1,-1,-1,-1,-1,-1,-1,-1,-1,-1,-1,-1,-1,-1,-1,-1,-1,-1,-1,-1,-1,-1,-1],"split_conditions":[3.0312185E1,-9.7850655E1,3.054274E1,1.5886E3,1.22E2,6.984E2,1.5E1,2.0330856E-2,2.1089E3,-9.7731094E1,1.46E2,-9.7731094E1,-9.778072E1,-1.1799183E2,1.96E2,1.7931E3,3.0215637E1,1.2771E3,3.0187313E1,1.3835E3,-9.7731094E1,6.544893E-3,1.8258305E-2,2.9028E3,1.3E2,-1.22317566E2,1.5351E3,1.68E2,-8.804616E1,-8.167925E-3,-1.0293862E-3,1.1168777E-3,7.593488E-3,-3.6779344E-3,1.0097334E-3,-2.9697153E-3,-7.84023E-3,-1.072704E-2,-5.766246E-3,-5.521422E-3,1.4825014E-3,9.22412E-3,-5.6305227E-5,-8.77064E-3,2.594561E-3,-9.849733E-5,3.0027784E-3,1.2869005E-3,-3.768698E-4,-8.17909E-4,1.1777952E-3,-5.40017E-3,1.1344591E-2],"split_indices":[4,5,4,6,7,6,8,0,6,5,7,5,5,5,7,6,4,6,4,6,5,0,0,6,7,5,6,7,5,0,0,0,0,0,0,0,0,0,0,0,0,0,0,0,0,0,0,0,0,0,0,0,0],"split_type":[0,0,0,0,0,0,0,0,0,0,0,0,0,0,0,0,0,0,0,0,0,0,0,0,0,0,0,0,0,0,0,0,0,0,0,0,0,0,0,0,0,0,0,0,0,0,0,0,0,0,0,0,0],"sum_hessian":[5.736E4,1.131E3,5.6229E4,2.65E2,8.66E2,6.83E2,5.5546E4,3E0,2.62E2,2.54E2,6.12E2,3.1E1,6.52E2,2.8682E4,2.6864E4,1.49E2,1.13E2,1.82E2,7.2E1,2.15E2,3.97E2,5E0,2.6E1,2.67E2,3.85E2,5.944E3,2.2738E4,2.5705E4,1.159E3,1.7E1,1.32E2,7.4E1,3.9E1,9.2E1,9E1,2.9E1,4.3E1,3.9E1,1.76E2,3.06E2,9.1E1,1.77E2,9E1,2.8E1,3.57E2,2.656E3,3.288E3,6.363E3,1.6375E4,1.7944E4,7.761E3,1.119E3,4E1],"tree_param":{"num_deleted":"0","num_feature":"9","num_nodes":"53","size_leaf_vector":"1"}},{"base_weights":[-2.9457538E-4,3.6551457E-2,-2.239201E-3,1.18254535E-2,7.101313E-2,5.306811E-2,-3.6613196E-3,-1.5464521E-2,1.01823755E-1,8.5079685E-2,-1.6707875E-1,1.4157042E-1,7.4766455E-3,-5.8102142E-2,-2.4997997E-3,2.9643038E-2,-6.995579E-2,1.4762482E-1,-3.710137E-2,9.339303E-2,-1.9385415E-1,-5.293989E-2,-1.8617433E-1,3.3483393E-2,1.5761952E-1,-4.1047275E-2,6.881552E-2,1.298889E-2,-8.023853E-2,8.755857E-2,-3.3659672E-3,-4.902592E-3,2.958124E-3,2.9206644E-3,-5.3585E-3,3.920656E-3,9.512713E-3,-6.524065E-5,-9.199349E-3,1.0870394E-2,3.8538284E-3,-1.1056062E-2,-3.0493836E-3,-6.9220987E-4,-3.6651273E-3,-1.1558223E-2,-7.3224637E-3,9.24408E-3,-1.7096086E-3,1.2534558E-2,6.2778327E-3,-5.1650265E-3,1.8651154E-3,4.7677495E-3,-1.1340621E-2,-1.1772793E-3,3.687424E-3,-4.9165357E-3,-2.86681E-3,3.6213675E-3,2.306154E-2,2.4060892E-4,-5.957181E-4],"categories":[],"categories_nodes":[],"categories_segments":[],"categories_sizes":[],"default_left":[0,0,0,0,0,0,0,0,0,0,0,0,0,0,0,0,0,0,0,0,0,0,0,0,0,0,0,0,0,0,0,0,0,0,0,0,0,0,0,0,0,0,0,0,0,0,0,0,0,0,0,0,0,0,0,0,0,0,0,0,0,0,0],"id":14,"left_children":[1,3,5,7,9,11,13,15,17,19,21,23,25,27,29,31,33,35,37,39,41,43,45,47,49,51,53,55,57,59,61,-1,-1,-1,-1,-1,-1,-1,-1,-1,-1,-1,-1,-1,-1,-1,-1,-1,-1,-1,-1,-1,-1,-1,-1,-1,-1,-1,-1,-1,-1,-1,-1],"loss_changes":[4.0891747E0,2.4370172E0,4.2639246E0,4.095812E0,4.016429E0,5.482438E0,3.3418403E0,3.148273E0,2.47429E0,2.6361113E0,1.3617373E-1,7.9615307E-1,2.6756344E0,1.7384052E0,4.0369296E0,2.6482072E0,2.7770088E0,8.4661484E-1,5.097859E-1,2.203004E0,1.0606933E-1,7.7421926E-3,6.8018556E-2,6.3132495E-1,1.168149E0,2.4523666E0,3.1364136E0,5.8554906E-1,3.432479E-1,2.754074E0,3.5833652E0,0E0,0E0,0E0,0E0,0E0,0E0,0E0,0E0,0E0,0E0,0E0,0E0,0E0,0E0,0E0,0E0,0E0,0E0,0E0,0E0,0E0,0E0,0E0,0E0,0E0,0E0,0E0,0E0,0E0,0E0,0E0,0E0],"parents":[2147483647,0,0,1,1,2,2,3,3,4,4,5,5,6,6,7,7,8,8,9,9,10,10,11,11,12,12,13,13,14,14,15,15,16,16,17,17,18,18,19,19,20,20,21,21,22,22,23,23,24,24,25,25,26,26,27,27,28,28,29,29,30,30],"right_children":[2,4,6,8,10,12,14,16,18,20,22,24,26,28,30,32,34,36,38,40,42,44,46,48,50,52,54,56,58,60,62,-1,-1,-1,-1,-1,-1,-1,-1,-1,-1,-1,-1,-1,-1,-1,-1,-1,-1,-1,-1,-1,-1,-1,-1,-1,-1,-1,-1,-1,-1,-1,-1],"split_conditions":[9.063E2,1.68E2,-1.224535E2,-7.121442E1,-7.1132195E1,2.7089E3,3.0312185E1,4.1796543E1,1.65E2,2.06E2,4.869E2,4.7191235E1,1.32E2,-9.7850655E1,3.054274E1,1.16E2,1.15E2,6.479E2,4.2268925E1,1.73E2,8.936E2,4.2234158E1,4.2244316E1,1.4E2,4.7209286E1,4.7216114E1,-1.2246973E2,2.1293E3,3.025004E1,-9.7694016E1,1.5E1,-4.902592E-3,2.958124E-3,2.9206644E-3,-5.3585E-3,3.920656E-3,9.512713E-3,-6.524065E-5,-9.199349E-3,1.0870394E-2,3.8538284E-3,-1.1056062E-2,-3.0493836E-3,-6.9220987E-4,-3.6651273E-3,-1.1558223E-2,-7.3224637E-3,9.24408E-3,-1.7096086E-3,1.2534558E-2,6.2778327E-3,-5.1650265E-3,1.8651154E-3,4.7677495E-3,-1.1340621E-2,-1.1772793E-3,3.687424E-3,-4.9165357E-3,-2.86681E-3,3.6213675E-3,2.306154E-2,2.4060892E-4,-5.957181E-4],"split_indices":[6,7,5,5,5,6,4,4,7,7,6,4,7,5,4,7,7,6,4,7,6,4,4,7,4,4,5,6,4,5,8,0,0,0,0,0,0,0,0,0,0,0,0,0,0,0,0,0,0,0,0,0,0,0,0,0,0,0,0,0,0,0,0],"split_type":[0,0,0,0,0,0,0,0,0,0,0,0,0,0,0,0,0,0,0,0,0,0,0,0,0,0,0,0,0,0,0,0,0,0,0,0,0,0,0,0,0,0,0,0,0,0,0,0,0,0,0,0,0,0,0,0,0,0,0,0,0,0,0],"sum_hessian":[5.7068E4,2.86E3,5.4208E4,1.666E3,1.194E3,1.358E3,5.285E4,1.279E3,3.87E2,1.128E3,6.6E1,4.61E2,8.97E2,1.103E3,5.1747E4,7E2,5.79E2,2.91E2,9.6E1,1.096E3,3.2E1,1E1,5.6E1,6E1,4.01E2,5.01E2,3.96E2,2.62E2,8.41E2,4.92E2,5.1255E4,1.31E2,5.69E2,1.3E2,4.49E2,1.12E2,1.79E2,7.8E1,1.8E1,1.26E2,9.7E2,2.6E1,6E0,4E0,6E0,2.4E1,3.2E1,1.8E1,4.2E1,1.01E2,3E2,2.79E2,2.22E2,3.64E2,3.2E1,1.64E2,9.8E1,4.68E2,3.73E2,4.74E2,1.8E1,2.6195E4,2.506E4],"tree_param":{"num_deleted":"0","num_feature":"9","num_nodes":"63","size_leaf_vector":"1"}},{"base_weights":[-2.0469578E-4,4.3972855E-4,-1.0533601E-1,4.8635274E-2,-7.19963E-4,-1.7276591E-1,-9.551633E-2,-1.366496E-1,6.0564652E-2,-1.2800313E-3,8.9249015E-2,-1.3493432E-1,-9.730364E-3,-5.88468E-2,-1.0654778E-1,-5.726236E-2,-1.6005436E-1,5.44409E-2,2.3176049E-1,-5.323017E-4,-8.460958E-2,1.0802245E-1,-1.0187714E-2,-1.5871929E-1,-3.6592558E-2,-8.98726E-2,3.4061905E-2,-1.2919967E-1,-9.0415806E-2,-9.258324E-3,2.1718794E-3,-6.409251E-3,-1.0258655E-2,6.7471643E-4,3.6779703E-3,1.2246541E-2,2.105863E-3,-7.521698E-5,2.3442686E-3,-7.3049255E-3,2.923343E-3,1.0947086E-2,3.906878E-3,-4.1881474E-3,-8.918066E-3,7.7256556E-3,-6.149863E-3,-5.4757237E-3,6.422456E-3,1.2361324E-2,-1.0679056E-3,-8.845461E-3,-5.432913E-3,2.7195227E-3,-5.821346E-3],"categories":[],"categories_nodes":[],"categories_segments":[],"categories_sizes":[],"default_left":[0,0,0,0,0,0,0,0,0,0,0,0,0,0,0,0,0,0,0,0,0,0,0,0,0,0,0,0,0,0,0,0,0,0,0,0,0,0,0,0,0,0,0,0,0,0,0,0,0,0,0,0,0,0,0],"id":15,"left_children":[1,3,5,7,9,11,13,15,17,19,21,23,-1,25,27,29,31,33,35,37,39,41,-1,43,45,47,49,51,53,-1,-1,-1,-1,-1,-1,-1,-1,-1,-1,-1,-1,-1,-1,-1,-1,-1,-1,-1,-1,-1,-1,-1,-1,-1,-1],"loss_changes":[3.8698797E0,3.1731894E0,2.139225E-1,2.9568608E0,2.7936676E0,9.2715025E-3,1.17512465E-1,1.4133608E-1,1.3020277E0,3.432999E0,1.9087434E0,3.863409E-2,0E0,2.1348858E-1,7.382655E-2,2.6564193E-1,6.285E-2,9.478054E-1,9.708333E-2,2.517096E0,4.319374E0,1.0535758E0,0E0,7.144332E-3,1.0156682E-1,2.4992076E-1,2.297384E-1,7.387924E-2,5.336523E-1,0E0,0E0,0E0,0E0,0E0,0E0,0E0,0E0,0E0,0E0,0E0,0E0,0E0,0E0,0E0,0E0,0E0,0E0,0E0,0E0,0E0,0E0,0E0,0E0,0E0,0E0],"parents":[2147483647,0,0,1,1,2,2,3,3,4,4,5,5,6,6,7,7,8,8,9,9,10,10,11,11,13,13,14,14,15,15,16,16,17,17,18,18,19,19,20,20,21,21,23,23,24,24,25,25,26,26,27,27,28,28],"right_children":[2,4,6,8,10,12,14,16,18,20,22,24,-1,26,28,30,32,34,36,38,40,42,-1,44,46,48,50,52,54,-1,-1,-1,-1,-1,-1,-1,-1,-1,-1,-1,-1,-1,-1,-1,-1,-1,-1,-1,-1,-1,-1,-1,-1,-1,-1],"split_conditions":[2.14E2,-1.224535E2,-8.798492E1,1.16E2,2.11E2,-8.799302E1,3E1,3.239082E3,1.56E2,2.06E2,-7.141623E1,1.2958304E4,-9.730364E-3,2.7E1,-8.7956055E1,2.127375E3,2E0,1.29E2,1.47E2,1.7E1,-8.807705E1,-1.222785E2,-1.0187714E-2,4E1,2E0,2E0,-8.796643E1,4.2E1,-8.770066E1,-9.258324E-3,2.1718794E-3,-6.409251E-3,-1.0258655E-2,6.7471643E-4,3.6779703E-3,1.2246541E-2,2.105863E-3,-7.521698E-5,2.3442686E-3,-7.3049255E-3,2.923343E-3,1.0947086E-2,3.906878E-3,-4.1881474E-3,-8.918066E-3,7.7256556E-3,-6.149863E-3,-5.4757237E-3,6.422456E-3,1.2361324E-2,-1.0679056E-3,-8.845461E-3,-5.432913E-3,2.7195227E-3,-5.821346E-3],"split_indices":[7,5,5,7,7,5,2,1,7,7,5,1,0,2,5,1,0,7,2,8,5,5,0,2,0,0,5,2,5,0,0,0,0,0,0,0,0,0,0,0,0,0,0,0,0,0,0,0,0,0,0,0,0,0,0],"split_type":[0,0,0,0,0,0,0,0,0,0,0,0,0,0,0,0,0,0,0,0,0,0,0,0,0,0,0,0,0,0,0,0,0,0,0,0,0,0,0,0,0,0,0,0,0,0,0,0,0,0,0,0,0,0,0],"sum_hessian":[5.7119E4,5.6772E4,3.47E2,1.333E3,5.5439E4,4.2E1,3.05E2,8E1,1.253E3,5.5097E4,3.42E2,1.8E1,2.4E1,7.2E1,2.33E2,1.9E1,6.1E1,1.211E3,4.2E1,5.4608E4,4.89E2,3.22E2,2E1,1.4E1,4E0,5.4E1,1.8E1,9.4E1,1.39E2,8E0,1.1E1,3.8E1,2.3E1,3.86E2,8.25E2,3.9E1,3E0,5.3512E4,1.096E3,3.42E2,1.47E2,6.7E1,2.55E2,4E0,1E1,1E0,3E0,5E1,4E0,3E0,1.5E1,2.6E1,6.8E1,2.1E1,1.18E2],"tree_param":{"num_deleted":"0","num_feature":"9","num_nodes":"55","size_leaf_vector":"1"}},{"base_weights":[6.3526037E-4,-6.562394E-2,1.7015841E-3,-1.393812E-2,-8.2251966E-2,5.0292626E-2,5.08204E-4,1.663797E-2,-1.8623756E-2,-9.7164996E-2,-3.87402E-2,1.3352321E-1,5.7254224E-3,5.539116E-3,-1.3794858E-2,-1.3791598E-1,-3.921524E-3,-1.0912215E-1,-7.141877E-2,1.2398295E-2,-1.0619082E-1,-1.0312601E-1,1.3943209E-1,2.345431E-2,-1.2920931E-1,6.42756E-3,-1.3257873E-1,2.7746098E-2,-2.3529487E-2,-8.228063E-3,-3.2027662E-3,-9.0308924E-4,4.6760165E-3,-5.7651335E-3,-1.7515932E-3,1.4699079E-2,-3.773203E-3,-6.5168217E-3,2.1418356E-3,-2.7757136E-3,-7.089241E-3,-2.6316894E-3,-6.5836385E-3,1.0509516E-2,5.444694E-3,1.6911514E-3,-9.530998E-3,-5.844803E-3,-9.641655E-3,-3.4627214E-3,3.9222775E-4,-4.09706E-3,-1.2044121E-2,3.1906345E-3,5.468877E-4,-8.3943596E-4,-6.899569E-3],"categories":[],"categories_nodes":[],"categories_segments":[],"categories_sizes":[],"default_left":[0,0,0,0,0,0,0,0,0,0,0,0,0,0,0,0,0,0,0,0,0,0,0,0,0,0,0,0,0,0,0,0,0,0,0,0,0,0,0,0,0,0,0,0,0,0,0,0,0,0,0,0,0,0,0,0,0],"id":16,"left_children":[1,3,5,7,9,11,13,-1,15,17,19,21,23,25,27,29,31,33,35,37,39,41,43,45,47,49,51,53,55,-1,-1,-1,-1,-1,-1,-1,-1,-1,-1,-1,-1,-1,-1,-1,-1,-1,-1,-1,-1,-1,-1,-1,-1,-1,-1,-1,-1],"loss_changes":[4.0282235E0,7.7492213E-1,3.2536576E0,3.652114E-1,4.3942833E-1,4.9883165E0,3.9408977E0,0E0,3.8355494E-1,1.4859581E-1,6.083975E-1,6.701975E-1,2.1010275E0,4.9725695E0,5.7635555E0,3.6691844E-2,2.7174836E-1,1.5394163E-1,2.646016E-1,4.4438973E-1,1.2921637E-1,1.0366246E-2,9.667721E-1,1.7289155E0,5.7366967E-2,4.3178525E0,1.4006777E0,1.6397324E0,8.906125E0,0E0,0E0,0E0,0E0,0E0,0E0,0E0,0E0,0E0,0E0,0E0,0E0,0E0,0E0,0E0,0E0,0E0,0E0,0E0,0E0,0E0,0E0,0E0,0E0,0E0,0E0,0E0,0E0],"parents":[2147483647,0,0,1,1,2,2,3,3,4,4,5,5,6,6,8,8,9,9,10,10,11,11,12,12,13,13,14,14,15,15,16,16,17,17,18,18,19,19,20,20,21,21,22,22,23,23,24,24,25,25,26,26,27,27,28,28],"right_children":[2,4,6,8,10,12,14,-1,16,18,20,22,24,26,28,30,32,34,36,38,40,42,44,46,48,50,52,54,56,-1,-1,-1,-1,-1,-1,-1,-1,-1,-1,-1,-1,-1,-1,-1,-1,-1,-1,-1,-1,-1,-1,-1,-1,-1,-1,-1,-1],"split_conditions":[3.028052E1,-9.7850655E1,-1.224535E2,1.5654E3,1.5E1,2.7089E3,2.2553E3,1.663797E-2,1.819E3,9.9E1,-9.7731094E1,2.4239E3,3.3086E3,-7.101772E1,-1.22246994E2,3.025004E1,2.2185E3,-9.771605E1,1E2,1.2011E3,3.0187313E1,2.4054E3,2.5681E3,-1.2246973E2,-1.2254854E2,-1.2233815E2,4.2234158E1,4.7163097E1,4.247136E1,-8.228063E-3,-3.2027662E-3,-9.0308924E-4,4.6760165E-3,-5.7651335E-3,-1.7515932E-3,1.4699079E-2,-3.773203E-3,-6.5168217E-3,2.1418356E-3,-2.7757136E-3,-7.089241E-3,-2.6316894E-3,-6.5836385E-3,1.0509516E-2,5.444694E-3,1.6911514E-3,-9.530998E-3,-5.844803E-3,-9.641655E-3,-3.4627214E-3,3.9222775E-4,-4.09706E-3,-1.2044121E-2,3.1906345E-3,5.468877E-4,-8.3943596E-4,-6.899569E-3],"split_indices":[4,5,5,6,8,6,6,0,6,2,5,6,6,5,5,4,6,5,2,6,4,6,6,5,5,5,4,4,4,0,0,0,0,0,0,0,0,0,0,0,0,0,0,0,0,0,0,0,0,0,0,0,0,0,0,0,0],"split_type":[0,0,0,0,0,0,0,0,0,0,0,0,0,0,0,0,0,0,0,0,0,0,0,0,0,0,0,0,0,0,0,0,0,0,0,0,0,0,0,0,0,0,0,0,0,0,0,0,0,0,0,0,0,0,0,0,0],"sum_hessian":[5.7011E4,9.02E2,5.6109E4,2.2E2,6.82E2,1.344E3,5.4765E4,2E0,2.18E2,5.07E2,1.75E2,4.68E2,8.76E2,4.0515E4,1.425E4,2.3E1,1.95E2,3.44E2,1.63E2,1E2,7.5E1,1.1E1,4.57E2,7.75E2,1.01E2,4.0257E4,2.58E2,2.705E3,1.1545E4,1.6E1,7E0,1.71E2,2.4E1,3.17E2,2.7E1,1E0,1.62E2,1.7E1,8.3E1,3.2E1,4.3E1,5E0,6E0,1.36E2,3.21E2,7.4E2,3.5E1,8.7E1,1.4E1,7.39E2,3.9518E4,1.77E2,8.1E1,8.59E2,1.846E3,1.0904E4,6.41E2],"tree_param":{"num_deleted":"0","num_feature":"9","num_nodes":"57","size_leaf_vector":"1"}},{"base_weights":[1.8314894E-4,3.449999E-2,-1.3709385E-3,2.0706551E-2,7.411827E-2,1.0135162E-2,-6.931823E-3,3.9733894E-2,-4.193645E-2,1.1860567E-1,2.3916071E-2,2.8403275E-2,4.582231E-4,-8.3203994E-2,-5.5022542E-3,1.3093405E-2,1.1099605E-1,-1.01913214E-1,2.4419961E-2,2.2934563E-2,1.4217405E-1,7.246958E-2,-1.4351682E-1,-6.6851825E-4,5.0314922E-2,-1.7229926E-2,1.4725181E-2,-1.318018E-1,-1.7896572E-2,-2.0041284E-3,-3.00921E-2,1.0258543E-3,-6.461609E-3,1.553717E-2,3.5349862E-3,-1.3925164E-2,-3.922347E-3,5.2763056E-3,-5.867862E-4,-4.7014384E-3,1.8949019E-3,7.6693604E-3,-2.3061156E-3,4.4337716E-3,-1.6300495E-3,-2.4950975E-3,-7.672073E-3,-4.3506566E-3,1.387616E-3,3.4130726E-3,1.5947301E-3,9.6002285E-4,-2.2181652E-3,1.1017744E-3,-7.245473E-3,3.694508E-3,-6.899971E-3,1.20961955E-2,-4.1947234E-3,-3.1626484E-4,1.1895958E-3,2.707989E-4,-3.9200787E-3],"categories":[],"categories_nodes":[],"categories_segments":[],"categories_sizes":[],"default_left":[0,0,0,0,0,0,0,0,0,0,0,0,0,0,0,0,0,0,0,0,0,0,0,0,0,0,0,0,0,0,0,0,0,0,0,0,0,0,0,0,0,0,0,0,0,0,0,0,0,0,0,0,0,0,0,0,0,0,0,0,0,0,0],"id":17,"left_children":[1,3,5,7,9,11,13,15,17,19,21,23,25,27,29,31,33,35,37,39,41,43,45,47,49,51,53,55,57,59,61,-1,-1,-1,-1,-1,-1,-1,-1,-1,-1,-1,-1,-1,-1,-1,-1,-1,-1,-1,-1,-1,-1,-1,-1,-1,-1,-1,-1,-1,-1,-1,-1],"loss_changes":[3.0429754E0,1.349345E0,3.492706E0,2.1888576E0,1.4220507E0,3.1441855E0,4.012189E0,2.6715767E0,1.7058614E0,7.5886536E-1,2.4573665E0,3.9233832E0,2.9346504E0,2.1463013E0,3.1073532E0,1.0867021E0,3.06083E0,9.1053224E-1,5.9945786E-1,1.2257561E-1,5.792632E-1,4.0133643E-1,5.552125E-2,6.500571E0,1.1588221E0,5.133036E0,7.5150304E0,5.048194E-1,4.9931016E0,3.5255818E0,7.717904E0,0E0,0E0,0E0,0E0,0E0,0E0,0E0,0E0,0E0,0E0,0E0,0E0,0E0,0E0,0E0,0E0,0E0,0E0,0E0,0E0,0E0,0E0,0E0,0E0,0E0,0E0,0E0,0E0,0E0,0E0,0E0,0E0],"parents":[2147483647,0,0,1,1,2,2,3,3,4,4,5,5,6,6,7,7,8,8,9,9,10,10,11,11,12,12,13,13,14,14,15,15,16,16,17,17,18,18,19,19,20,20,21,21,22,22,23,23,24,24,25,25,26,26,27,27,28,28,29,29,30,30],"right_children":[2,4,6,8,10,12,14,16,18,20,22,24,26,28,30,32,34,36,38,40,42,44,46,48,50,52,54,56,58,60,62,-1,-1,-1,-1,-1,-1,-1,-1,-1,-1,-1,-1,-1,-1,-1,-1,-1,-1,-1,-1,-1,-1,-1,-1,-1,-1,-1,-1,-1,-1,-1,-1],"split_conditions":[8.798E2,-8.766178E1,-1.1797845E2,-8.814456E1,-7.1132195E1,1.5E1,-1.17961525E2,-1.1777996E2,7.407E2,4.3E1,1.3E1,-1.22317566E2,-1.2214084E2,1.9235E3,2.5563E3,-1.177978E2,6.479E2,4.869E2,1.4E1,2.7E1,1E0,1E0,4.869E2,2.1159E3,8.2E1,-1.222785E2,2.3483E3,1.0983E3,2.1089E3,1.6E1,1.4E1,1.0258543E-3,-6.461609E-3,1.553717E-2,3.5349862E-3,-1.3925164E-2,-3.922347E-3,5.2763056E-3,-5.867862E-4,-4.7014384E-3,1.8949019E-3,7.6693604E-3,-2.3061156E-3,4.4337716E-3,-1.6300495E-3,-2.4950975E-3,-7.672073E-3,-4.3506566E-3,1.387616E-3,3.4130726E-3,1.5947301E-3,9.6002285E-4,-2.2181652E-3,1.1017744E-3,-7.245473E-3,3.694508E-3,-6.899971E-3,1.20961955E-2,-4.1947234E-3,-3.1626484E-4,1.1895958E-3,2.707989E-4,-3.9200787E-3],"split_indices":[6,5,5,5,5,8,5,5,6,2,8,5,5,6,6,5,6,6,8,2,3,3,6,6,2,5,6,6,6,8,8,0,0,0,0,0,0,0,0,0,0,0,0,0,0,0,0,0,0,0,0,0,0,0,0,0,0,0,0,0,0,0,0],"split_type":[0,0,0,0,0,0,0,0,0,0,0,0,0,0,0,0,0,0,0,0,0,0,0,0,0,0,0,0,0,0,0,0,0,0,0,0,0,0,0,0,0,0,0,0,0,0,0,0,0,0,0,0,0,0,0,0,0,0,0,0,0,0,0],"sum_hessian":[5.7056E4,2.471E3,5.4585E4,1.834E3,6.37E2,1.7785E4,3.68E4,1.407E3,4.27E2,3.37E2,3E2,6.158E3,1.1627E4,6.76E2,3.6124E4,1.025E3,3.82E2,2.24E2,2.03E2,6.7E1,2.7E2,2.33E2,6.7E1,2.647E3,3.511E3,5.191E3,6.436E3,3.87E2,2.89E2,3.1626E4,4.498E3,9.75E2,5E1,6.3E1,3.19E2,2.5E1,1.99E2,6.2E1,1.41E2,7E0,6E1,2.55E2,1.5E1,2.02E2,3.1E1,7E0,6E1,6.55E2,1.992E3,1.777E3,1.734E3,2.216E3,2.975E3,6.155E3,2.81E2,1.1E1,3.76E2,5.8E1,2.31E2,2.7089E4,4.537E3,2.593E3,1.905E3],"tree_param":{"num_deleted":"0","num_feature":"9","num_nodes":"63","size_leaf_vector":"1"}},{"base_weights":[-8.40546E-5,-5.401467E-2,9.967189E-4,1.1848369E-2,-7.421727E-2,7.2939634E-2,1.100758E-4,-6.8647065E-3,1.0556976E-1,-2.9427273E-2,-8.444216E-2,2.9010078E-1,6.3183725E-2,7.172362E-4,-9.709964E-2,-1.8983506E-2,9.340141E-2,3.0673305E-2,1.3269739E-1,4.0739678E-2,-1.0461441E-1,-9.005432E-2,-2.5419807E-2,4.9663E-3,1.6285347E-2,1.1776963E-1,2.6305778E-2,-1.52686555E-2,4.205967E-3,-1.5173176E-1,-7.367164E-2,-5.064612E-3,-4.0596956E-4,5.686169E-3,-1.8319614E-3,2.9266179E-3,-7.5908834E-3,7.758806E-3,4.8438213E-3,-9.619028E-3,2.4385822E-3,-2.7313945E-3,-6.8210973E-3,-4.124125E-3,-5.8930675E-3,-7.1027167E-3,3.7405116E-3,8.448421E-3,9.5707376E-4,-8.189091E-3,2.127811E-3,3.0198784E-5,-5.5909515E-3,7.846129E-4,-4.3238024E-4,-7.8109577E-3,7.5373775E-3,-2.223232E-3,-7.100751E-3],"categories":[],"categories_nodes":[],"categories_segments":[],"categories_sizes":[],"default_left":[0,0,0,0,0,0,0,0,0,0,0,0,0,0,0,0,0,0,0,0,0,0,0,0,0,0,0,0,0,0,0,0,0,0,0,0,0,0,0,0,0,0,0,0,0,0,0,0,0,0,0,0,0,0,0,0,0,0,0],"id":18,"left_children":[1,3,5,7,9,11,13,15,17,19,21,23,25,27,29,31,33,35,37,39,41,43,45,-1,-1,47,49,51,53,55,57,-1,-1,-1,-1,-1,-1,-1,-1,-1,-1,-1,-1,-1,-1,-1,-1,-1,-1,-1,-1,-1,-1,-1,-1,-1,-1,-1,-1],"loss_changes":[3.325781E0,1.492487E0,3.5681477E0,4.6373194E-1,3.9045572E-1,1.4244409E0,3.2615013E0,2.7031127E-1,8.532733E-2,8.536419E-1,2.2891855E-1,1.6463876E-1,1.3114014E0,3.0627556E0,4.278345E-1,1.7623144E-1,6.7591086E-2,7.4978575E-2,1.0733783E-2,1.6666545E-1,1.165635E-1,1.2439871E-1,7.3542476E-1,0E0,0E0,1.324822E0,1.214772E0,1.5076886E1,6.655594E0,1.6199875E-1,4.7674286E-1,0E0,0E0,0E0,0E0,0E0,0E0,0E0,0E0,0E0,0E0,0E0,0E0,0E0,0E0,0E0,0E0,0E0,0E0,0E0,0E0,0E0,0E0,0E0,0E0,0E0,0E0,0E0,0E0],"parents":[2147483647,0,0,1,1,2,2,3,3,4,4,5,5,6,6,7,7,8,8,9,9,10,10,11,11,12,12,13,13,14,14,15,15,16,16,17,17,18,18,19,19,20,20,21,21,22,22,25,25,26,26,27,27,28,28,29,29,30,30],"right_children":[2,4,6,8,10,12,14,16,18,20,22,24,26,28,30,32,34,36,38,40,42,44,46,-1,-1,48,50,52,54,56,58,-1,-1,-1,-1,-1,-1,-1,-1,-1,-1,-1,-1,-1,-1,-1,-1,-1,-1,-1,-1,-1,-1,-1,-1,-1,-1,-1,-1],"split_conditions":[3.0312185E1,-9.7850655E1,3.054274E1,3.028052E1,1.01E2,6.984E2,2.14E2,2.234E3,2.1027E3,1.6353E3,-9.771605E1,-9.7731094E1,-9.778072E1,3.386152E1,1.0983E3,1.819E3,3.0187313E1,2.0953E3,6.9E1,1.2011E3,3.0187313E1,1.95E3,1.46E2,4.9663E-3,1.6285347E-2,2.9028E3,3.0457497E1,1.8E2,1.9821E3,4.2214916E1,1.9355E3,-5.064612E-3,-4.0596956E-4,5.686169E-3,-1.8319614E-3,2.9266179E-3,-7.5908834E-3,7.758806E-3,4.8438213E-3,-9.619028E-3,2.4385822E-3,-2.7313945E-3,-6.8210973E-3,-4.124125E-3,-5.8930675E-3,-7.1027167E-3,3.7405116E-3,8.448421E-3,9.5707376E-4,-8.189091E-3,2.127811E-3,3.0198784E-5,-5.5909515E-3,7.846129E-4,-4.3238024E-4,-7.8109577E-3,7.5373775E-3,-2.223232E-3,-7.100751E-3],"split_indices":[4,5,4,4,7,6,7,6,6,6,5,5,5,4,6,6,4,6,2,6,4,6,7,0,0,6,4,7,6,4,6,0,0,0,0,0,0,0,0,0,0,0,0,0,0,0,0,0,0,0,0,0,0,0,0,0,0,0,0],"split_type":[0,0,0,0,0,0,0,0,0,0,0,0,0,0,0,0,0,0,0,0,0,0,0,0,0,0,0,0,0,0,0,0,0,0,0,0,0,0,0,0,0,0,0,0,0,0,0,0,0,0,0,0,0,0,0,0,0,0,0],"sum_hessian":[5.7057E4,1.12E3,5.5937E4,2.63E2,8.57E2,6.8E2,5.5257E4,2.2E2,4.3E1,1.6E2,6.97E2,2.8E1,6.52E2,5.4915E4,3.42E2,1.97E2,2.3E1,1.2E1,3.1E1,8.3E1,7.7E1,6.36E2,6.1E1,5E0,2.3E1,2.62E2,3.9E2,9.837E3,4.5078E4,1.01E2,2.41E2,2.2E1,1.75E2,2E1,3E0,1.1E1,1E0,1.7E1,1.4E1,2E0,8.1E1,3.1E1,4.6E1,5.03E2,1.33E2,2.8E1,3.3E1,1.72E2,9E1,3E1,3.6E2,8.449E3,1.388E3,2.3805E4,2.1273E4,1E2,1E0,1.7E2,7.1E1],"tree_param":{"num_deleted":"0","num_feature":"9","num_nodes":"59","size_leaf_vector":"1"}},{"base_weights":[1.7449698E-4,7.364023E-4,-9.339482E-2,3.029574E-2,-8.8609266E-4,-1.3993709E-1,-7.0527054E-2,3.0772872E-3,5.9031572E-2,9.969923E-3,-6.1742095E-3,-6.915409E-2,-1.5200259E-1,-5.191513E-3,-1.1024035E-1,3.3841435E-2,-1.526016E-1,7.711762E-2,-9.058836E-2,2.4920633E-2,-1.1084484E-2,-7.771578E-2,-4.8188213E-3,-1.0017221E-1,1.1453847E-2,-1.5610604E-1,2.4504036E-2,8.103403E-2,-4.8947014E-2,-2.7758775E-2,-1.2421046E-1,1.5606353E-4,6.902224E-3,-8.546127E-3,5.9070945E-4,4.164001E-3,-8.682758E-3,-2.2352391E-3,-7.2121755E-3,-2.484286E-3,1.6089777E-3,-5.1936447E-3,2.9083045E-4,-5.9614936E-3,-1.0362851E-3,-1.6080445E-4,-3.186858E-3,-9.343079E-3,-1.0401749E-3,-8.65928E-3,-5.4287156E-3,-5.511141E-3,7.3489435E-3,2.9521561E-3,5.682538E-3,-3.260128E-3,1.3956886E-3,2.5116617E-3,-1.903482E-3,-4.8203706E-3,-7.4358988E-3],"categories":[],"categories_nodes":[],"categories_segments":[],"categories_sizes":[],"default_left":[0,0,0,0,0,0,0,0,0,0,0,0,0,0,0,0,0,0,0,0,0,0,0,0,0,0,0,0,0,0,0,0,0,0,0,0,0,0,0,0,0,0,0,0,0,0,0,0,0,0,0,0,0,0,0,0,0,0,0,0,0],"id":19,"left_children":[1,3,5,7,9,11,13,15,17,19,21,23,25,27,29,31,33,35,37,39,41,43,45,47,-1,49,51,53,55,57,59,-1,-1,-1,-1,-1,-1,-1,-1,-1,-1,-1,-1,-1,-1,-1,-1,-1,-1,-1,-1,-1,-1,-1,-1,-1,-1,-1,-1,-1,-1],"loss_changes":[2.9946501E0,2.7153714E0,3.519988E-1,2.3040173E0,3.081257E0,8.4285736E-2,5.962063E-1,7.2562075E0,3.8847313E0,5.5343943E0,3.4993443E0,1.8945731E-1,7.1908236E-2,3.3597645E-1,1.6132772E-1,4.0490046E0,7.550812E-1,1.9909801E0,3.7514472E-1,5.5693927E0,1.1450219E1,1.585042E0,3.344706E0,1.1307983E-1,0E0,5.5883884E-2,6.570238E-2,1.480785E-2,7.5535476E-2,1.960399E-2,6.879115E-2,0E0,0E0,0E0,0E0,0E0,0E0,0E0,0E0,0E0,0E0,0E0,0E0,0E0,0E0,0E0,0E0,0E0,0E0,0E0,0E0,0E0,0E0,0E0,0E0,0E0,0E0,0E0,0E0,0E0,0E0],"parents":[2147483647,0,0,1,1,2,2,3,3,4,4,5,5,6,6,7,7,8,8,9,9,10,10,11,11,12,12,13,13,14,14,15,15,16,16,17,17,18,18,19,19,20,20,21,21,22,22,23,23,25,25,26,26,27,27,28,28,29,29,30,30],"right_children":[2,4,6,8,10,12,14,16,18,20,22,24,26,28,30,32,34,36,38,40,42,44,46,48,-1,50,52,54,56,58,60,-1,-1,-1,-1,-1,-1,-1,-1,-1,-1,-1,-1,-1,-1,-1,-1,-1,-1,-1,-1,-1,-1,-1,-1,-1,-1,-1,-1,-1,-1],"split_conditions":[2.14E2,9.063E2,1.1082E3,1.63E2,-1.1797845E2,1.8966E3,-8.770066E1,1.6E2,-7.1132195E1,4.7283604E1,-1.17961525E2,1.6315E3,4.2214916E1,4.2179356E1,1.5578E3,1.56E2,1.62E2,2.06E2,1.68E2,3.3749763E1,4.7410885E1,3.3796494E1,4.2451023E1,9.565E2,1.1453847E-2,-8.796643E1,5.81672E3,1.6812E3,2.6334715E4,-8.769179E1,1.9235E3,1.5606353E-4,6.902224E-3,-8.546127E-3,5.9070945E-4,4.164001E-3,-8.682758E-3,-2.2352391E-3,-7.2121755E-3,-2.484286E-3,1.6089777E-3,-5.1936447E-3,2.9083045E-4,-5.9614936E-3,-1.0362851E-3,-1.6080445E-4,-3.186858E-3,-9.343079E-3,-1.0401749E-3,-8.65928E-3,-5.4287156E-3,-5.511141E-3,7.3489435E-3,2.9521561E-3,5.682538E-3,-3.260128E-3,1.3956886E-3,2.5116617E-3,-1.903482E-3,-4.8203706E-3,-7.4358988E-3],"split_indices":[7,6,6,7,5,1,5,7,5,4,5,1,4,4,6,7,7,7,7,4,4,4,4,6,0,5,1,6,1,5,6,0,0,0,0,0,0,0,0,0,0,0,0,0,0,0,0,0,0,0,0,0,0,0,0,0,0,0,0,0,0],"split_type":[0,0,0,0,0,0,0,0,0,0,0,0,0,0,0,0,0,0,0,0,0,0,0,0,0,0,0,0,0,0,0,0,0,0,0,0,0,0,0,0,0,0,0,0,0,0,0,0,0,0,0,0,0,0,0,0,0,0,0,0,0],"sum_hessian":[5.6955E4,5.6616E4,3.39E2,2.945E3,5.3671E4,1.1E2,2.29E2,1.513E3,1.432E3,1.758E4,3.6091E4,1.7E1,9.3E1,8.7E1,1.42E2,1.264E3,2.49E2,1.278E3,1.54E2,1.028E4,7.3E3,6.7E2,3.5421E4,1.6E1,1E0,9.1E1,2E0,2.9E1,5.8E1,2.1E1,1.21E2,9.77E2,2.87E2,2.24E2,2.5E1,1.248E3,3E1,8.4E1,7E1,9.11E2,9.369E3,1.124E3,6.176E3,3.87E2,2.83E2,3.4484E4,9.37E2,7E0,9E0,6.5E1,2.6E1,1E0,1E0,1.9E1,1E1,4.8E1,1E1,2E0,1.9E1,5.9E1,6.2E1],"tree_param":{"num_deleted":"0","num_feature":"9","num_nodes":"61","size_leaf_vector":"1"}},{"base_weights":[4.2105422E-4,-5.227488E-2,1.476061E-3,8.027011E-3,-7.104017E-2,6.7845665E-2,6.8152027E-4,-6.295886E-3,7.850825E-2,-1.0422548E-1,-5.925225E-2,4.065616E-2,1.3957559E-1,7.832688E-3,-6.892184E-3,-2.4921177E-2,2.9812189E-2,5.8159963E-3,4.6402805E-2,-6.0116965E-3,-9.380148E-2,-7.276764E-2,-3.968695E-2,1.02105305E-1,-3.4289595E-2,3.1043178E-1,6.640521E-2,2.9934667E-2,2.0199148E-3,-3.4078718E-3,-8.4673144E-2,1.5284654E-3,-2.6067218E-3,2.2727207E-3,-6.5434473E-3,-3.5770969E-3,3.8945822E-3,-2.969693E-4,-4.8860265E-3,-1.6019315E-3,-5.66622E-3,-4.1557155E-3,1.9594606E-3,1.1745655E-3,8.039004E-3,-3.4119964E-3,2.2209296E-3,1.671662E-2,-1.0366119E-2,-6.775278E-3,4.1407235E-3,6.3312124E-3,9.800261E-4,6.566827E-4,-5.5172824E-4,-7.7805546E-4,1.2313038E-3,-5.952738E-3,1.9464637E-4],"categories":[],"categories_nodes":[],"categories_segments":[],"categories_sizes":[],"default_left":[0,0,0,0,0,0,0,0,0,0,0,0,0,0,0,0,0,0,0,0,0,0,0,0,0,0,0,0,0,0,0,0,0,0,0,0,0,0,0,0,0,0,0,0,0,0,0,0,0,0,0,0,0,0,0,0,0,0,0],"id":20,"left_children":[1,3,5,7,9,11,13,15,17,19,21,23,25,27,29,31,33,-1,35,-1,37,39,41,43,45,47,49,51,53,55,57,-1,-1,-1,-1,-1,-1,-1,-1,-1,-1,-1,-1,-1,-1,-1,-1,-1,-1,-1,-1,-1,-1,-1,-1,-1,-1,-1,-1],"loss_changes":[3.163853E0,1.2645481E0,2.942053E0,2.6902008E-1,3.2711458E-1,1.2815244E0,2.986103E0,1.5004316E-1,4.9230695E-2,2.5767326E-2,1.6396928E-1,2.2140703E0,2.2421777E0,3.6431994E0,7.2563586E0,2.23575E-1,1.9696777E-1,0E0,1.0213503E-1,0E0,4.728234E-2,6.108525E-1,8.938569E-1,1.2139645E0,5.828919E-1,7.3754454E-1,4.3531227E-1,5.897816E0,3.257863E0,8.732266E0,3.4961758E0,0E0,0E0,0E0,0E0,0E0,0E0,0E0,0E0,0E0,0E0,0E0,0E0,0E0,0E0,0E0,0E0,0E0,0E0,0E0,0E0,0E0,0E0,0E0,0E0,0E0,0E0,0E0,0E0],"parents":[2147483647,0,0,1,1,2,2,3,3,4,4,5,5,6,6,7,7,8,8,9,9,10,10,11,11,12,12,13,13,14,14,15,15,16,16,18,18,20,20,21,21,22,22,23,23,24,24,25,25,26,26,27,27,28,28,29,29,30,30],"right_children":[2,4,6,8,10,12,14,16,18,20,22,24,26,28,30,32,34,-1,36,-1,38,40,42,44,46,48,50,52,54,56,58,-1,-1,-1,-1,-1,-1,-1,-1,-1,-1,-1,-1,-1,-1,-1,-1,-1,-1,-1,-1,-1,-1,-1,-1,-1,-1,-1,-1],"split_conditions":[3.0312185E1,-9.7850655E1,3.054274E1,3.028052E1,-9.781074E1,-9.7731094E1,1.5E1,1.5264116E4,7.08707E3,6.247542E3,1.46E2,-9.778072E1,3.0515875E1,-1.1799183E2,1.96E2,3.0187313E1,1E0,5.8159963E-3,9.178036E3,-6.0116965E-3,6.32968E3,-9.7731094E1,-9.7731094E1,-9.791953E1,3.0515875E1,4E0,9.492E2,3.394974E1,1.64E2,1.68E2,4.7431454E1,1.5284654E-3,-2.6067218E-3,2.2727207E-3,-6.5434473E-3,-3.5770969E-3,3.8945822E-3,-2.969693E-4,-4.8860265E-3,-1.6019315E-3,-5.66622E-3,-4.1557155E-3,1.9594606E-3,1.1745655E-3,8.039004E-3,-3.4119964E-3,2.2209296E-3,1.671662E-2,-1.0366119E-2,-6.775278E-3,4.1407235E-3,6.3312124E-3,9.800261E-4,6.566827E-4,-5.5172824E-4,-7.7805546E-4,1.2313038E-3,-5.952738E-3,1.9464637E-4],"split_indices":[4,5,4,4,5,5,8,1,1,1,7,5,4,5,7,4,3,0,1,0,1,5,5,5,4,0,1,4,7,7,4,0,0,0,0,0,0,0,0,0,0,0,0,0,0,0,0,0,0,0,0,0,0,0,0,0,0,0,0],"split_type":[0,0,0,0,0,0,0,0,0,0,0,0,0,0,0,0,0,0,0,0,0,0,0,0,0,0,0,0,0,0,0,0,0,0,0,0,0,0,0,0,0,0,0,0,0,0,0,0,0,0,0,0,0,0,0,0,0,0,0],"sum_hessian":[5.6907E4,1.116E3,5.5791E4,2.65E2,8.51E2,6.59E2,5.5132E4,2.21E2,4.4E1,2.21E2,6.3E2,4.79E2,1.8E2,2.8357E4,2.6775E4,1.46E2,7.5E1,1.9E1,2.5E1,8.3E1,1.38E2,3.71E2,2.59E2,2.63E2,2.16E2,5.3E1,1.27E2,5.904E3,2.2453E4,2.5628E4,1.147E3,4.8E1,9.8E1,6.9E1,6E0,5E0,2E1,6E0,1.32E2,1.86E2,1.85E2,1.67E2,9.2E1,1.13E2,1.5E2,1.51E2,6.5E1,5.1E1,2E0,9E0,1.18E2,5.69E2,5.335E3,1.2128E4,1.0325E4,1.7878E4,7.75E3,8.26E2,3.21E2],"tree_param":{"num_deleted":"0","num_feature":"9","num_nodes":"59","size_leaf_vector":"1"}},{"base_weights":[5.149405E-4,-1.7737137E-2,3.807668E-3,5.5512274E-3,-4.4527628E-2,1.4409234E-2,-4.2740693E-3,-4.9107213E-2,2.2561021E-2,-3.9634738E-2,-1.2041864E-2,2.2632923E-2,-2.2608776E-2,-5.5076614E-2,2.1358617E-3,1.2308352E-2,-6.8543285E-2,-2.8076451E-3,8.0211155E-2,-1.5402511E-1,-3.2175213E-2,1.1106154E-2,4.2284135E-2,-3.1475976E-2,6.971024E-2,-2.8577013E-2,-1.20690875E-1,3.8590685E-3,-1.22034885E-1,1.95961E-2,3.2439802E-4,-5.8610663E-3,-3.012221E-3,7.523269E-4,-7.903588E-3,5.6623053E-3,1.565262E-3,-4.1476656E-3,-1.0604237E-2,1.0208514E-3,-3.1068902E-3,1.32968E-2,4.728676E-4,2.60243E-3,-1.3633338E-3,-9.037642E-3,-1.3485686E-3,5.8387737E-3,-7.27992E-3,-5.706695E-3,-7.593261E-4,-7.7060186E-3,-3.142427E-3,1.1278595E-3,-1.4192313E-4,-1.3446472E-2,-5.13496E-3],"categories":[],"categories_nodes":[],"categories_segments":[],"categories_sizes":[],"default_left":[0,0,0,0,0,0,0,0,0,0,0,0,0,0,0,0,0,0,0,0,0,0,0,0,0,0,0,0,0,0,0,0,0,0,0,0,0,0,0,0,0,0,0,0,0,0,0,0,0,0,0,0,0,0,0,0,0],"id":21,"left_children":[1,3,5,7,9,11,13,15,17,19,-1,21,23,25,27,29,31,33,35,37,39,41,43,45,47,49,51,53,55,-1,-1,-1,-1,-1,-1,-1,-1,-1,-1,-1,-1,-1,-1,-1,-1,-1,-1,-1,-1,-1,-1,-1,-1,-1,-1,-1,-1],"loss_changes":[3.4144788E0,5.4176292E0,4.1238813E0,4.3206277E0,3.8690386E0,6.3386316E0,8.89402E0,1.3174698E0,5.1833496E0,3.357891E0,0E0,3.8584404E0,3.1006374E0,5.317131E0,5.1899304E0,5.8518416E-1,3.3146715E-1,6.8273225E0,1.7461543E0,9.7687006E-1,5.8333035E0,4.5096254E0,4.278558E0,2.3177085E0,3.3813415E0,2.4969263E0,1.6919174E0,2.9958458E0,9.1536283E-1,0E0,0E0,0E0,0E0,0E0,0E0,0E0,0E0,0E0,0E0,0E0,0E0,0E0,0E0,0E0,0E0,0E0,0E0,0E0,0E0,0E0,0E0,0E0,0E0,0E0,0E0,0E0,0E0],"parents":[2147483647,0,0,1,1,2,2,3,3,4,4,5,5,6,6,7,7,8,8,9,9,11,11,12,12,13,13,14,14,15,15,16,16,17,17,18,18,19,19,20,20,21,21,22,22,23,23,24,24,25,25,26,26,27,27,28,28],"right_children":[2,4,6,8,10,12,14,16,18,20,-1,22,24,26,28,30,32,34,36,38,40,42,44,46,48,50,52,54,56,-1,-1,-1,-1,-1,-1,-1,-1,-1,-1,-1,-1,-1,-1,-1,-1,-1,-1,-1,-1,-1,-1,-1,-1,-1,-1,-1,-1],"split_conditions":[3.380075E1,3.368511E1,4.192378E1,3.0312185E1,-1.1765645E2,2.3326E3,4.2049732E1,-9.7850655E1,-1.17642654E2,-1.18301636E2,-1.2041864E-2,3.4101192E1,4.1874947E1,4.2002995E1,1.6E1,1.5886E3,1.2691E3,-1.17662766E2,-9.778072E1,3.3727497E1,-1.1797845E2,6.479E2,-8.770066E1,-1.1838803E2,2.593E3,-8.804616E1,-7.151874E1,1.3E1,1.6812E3,1.95961E-2,3.2439802E-4,-5.8610663E-3,-3.012221E-3,7.523269E-4,-7.903588E-3,5.6623053E-3,1.565262E-3,-4.1476656E-3,-1.0604237E-2,1.0208514E-3,-3.1068902E-3,1.32968E-2,4.728676E-4,2.60243E-3,-1.3633338E-3,-9.037642E-3,-1.3485686E-3,5.8387737E-3,-7.27992E-3,-5.706695E-3,-7.593261E-4,-7.7060186E-3,-3.142427E-3,1.1278595E-3,-1.4192313E-4,-1.3446472E-2,-5.13496E-3],"split_indices":[4,4,4,4,5,6,4,5,5,5,0,4,4,4,8,6,6,5,5,4,5,6,5,5,6,5,5,8,6,0,0,0,0,0,0,0,0,0,0,0,0,0,0,0,0,0,0,0,0,0,0,0,0,0,0,0,0],"split_type":[0,0,0,0,0,0,0,0,0,0,0,0,0,0,0,0,0,0,0,0,0,0,0,0,0,0,0,0,0,0,0,0,0,0,0,0,0,0,0,0,0,0,0,0,0,0,0,0,0,0,0,0,0,0,0,0,0],"sum_hessian":[5.6812E4,8.682E3,4.813E4,4.645E3,4.037E3,2.0819E4,2.7311E4,1.102E3,3.543E3,3.94E3,9.7E1,1.7035E4,3.784E3,3.059E3,2.4252E4,2.65E2,8.37E2,2.461E3,1.082E3,2.4E2,3.7E3,1.0738E4,6.297E3,3.453E3,3.31E2,2.18E3,8.79E2,2.3921E4,3.31E2,3E0,2.62E2,1.2E2,7.17E2,2.208E3,2.53E2,6.45E2,4.37E2,1.09E2,1.31E2,1.343E3,2.357E3,6.8E1,1.067E4,5.522E3,7.75E2,1E2,3.353E3,2.72E2,5.9E1,2.94E2,1.886E3,5.56E2,3.23E2,6.308E3,1.7613E4,3.7E1,2.94E2],"tree_param":{"num_deleted":"0","num_feature":"9","num_nodes":"57","size_leaf_vector":"1"}},{"base_weights":[1.8110087E-4,7.8150094E-4,-9.8499715E-2,-1.2567272E-2,4.206193E-3,-8.300524E-2,-1.6132006E-1,7.882662E-3,-6.1696447E-2,-5.3782733E-3,2.096675E-2,-1.323718E-1,-7.0513435E-2,-1.8263768E-1,-1.02091774E-1,1.4861388E-2,-7.2955646E-2,-7.0856765E-2,8.5685015E-2,9.718934E-3,-2.3501473E-2,1.1446625E-1,1.5436601E-2,-1.1235332E-1,-8.525498E-3,-7.832888E-3,-6.358127E-2,-1.2703864E-1,-9.610541E-3,1.7442754E-2,-8.578891E-3,5.2956584E-5,4.0186867E-3,2.02849E-2,-3.8654313E-3,-2.2700536E-3,-5.065292E-3,1.4850442E-2,1.3630375E-3,2.1528032E-4,4.716934E-3,-3.4762552E-4,-5.361483E-3,1.07965E-2,4.8302743E-3,3.68751E-3,3.2798768E-4,-1.6687512E-4,-5.7567167E-3,-3.3900128E-3,1.8853641E-3,-8.198935E-3,-3.7541084E-3],"categories":[],"categories_nodes":[],"categories_segments":[],"categories_sizes":[],"default_left":[0,0,0,0,0,0,0,0,0,0,0,0,0,0,0,0,0,0,0,0,0,0,0,0,0,0,0,0,0,0,0,0,0,0,0,0,0,0,0,0,0,0,0,0,0,0,0,0,0,0,0,0,0],"id":22,"left_children":[1,3,5,7,9,11,13,15,17,19,21,23,25,27,29,31,33,35,37,39,41,43,45,47,-1,-1,49,51,-1,-1,-1,-1,-1,-1,-1,-1,-1,-1,-1,-1,-1,-1,-1,-1,-1,-1,-1,-1,-1,-1,-1,-1,-1],"loss_changes":[3.37022E0,2.584758E0,3.214481E-1,1.1598608E1,7.2283154E0,1.6210258E-1,6.5948725E-2,4.600022E0,4.586829E0,7.832853E0,8.4626045E0,2.2833407E-2,1.2380469E-1,1.1302233E-3,6.865461E-1,6.7860723E0,1.3815172E0,2.4718533E0,2.448845E0,7.1537995E0,1.8026098E1,1.6355104E0,8.000692E0,1.1439532E-2,0E0,0E0,9.186953E-2,6.8808645E-3,0E0,0E0,0E0,0E0,0E0,0E0,0E0,0E0,0E0,0E0,0E0,0E0,0E0,0E0,0E0,0E0,0E0,0E0,0E0,0E0,0E0,0E0,0E0,0E0,0E0],"parents":[2147483647,0,0,1,1,2,2,3,3,4,4,5,5,6,6,7,7,8,8,9,9,10,10,11,11,12,12,13,13,14,14,15,15,16,16,17,17,18,18,19,19,20,20,21,21,22,22,23,23,26,26,27,27],"right_children":[2,4,6,8,10,12,14,16,18,20,22,24,26,28,30,32,34,36,38,40,42,44,46,48,-1,-1,50,52,-1,-1,-1,-1,-1,-1,-1,-1,-1,-1,-1,-1,-1,-1,-1,-1,-1,-1,-1,-1,-1,-1,-1,-1,-1],"split_conditions":[2.14E2,3.386152E1,4.2199867E1,1.66E2,1.7E2,4.1715675E1,2E0,3.384425E1,-9.7731094E1,1.5E2,3.392884E1,-8.768631E1,-8.798492E1,-8.799302E1,5.284917E3,1.57E2,9.9E1,1.8E2,3.0515875E1,1.48E2,4.725297E1,3.3870625E1,1.73E2,7.97148E2,-8.525498E-3,-7.832888E-3,-8.768631E1,1.503195E3,-9.610541E-3,1.7442754E-2,-8.578891E-3,5.2956584E-5,4.0186867E-3,2.02849E-2,-3.8654313E-3,-2.2700536E-3,-5.065292E-3,1.4850442E-2,1.3630375E-3,2.1528032E-4,4.716934E-3,-3.4762552E-4,-5.361483E-3,1.07965E-2,4.8302743E-3,3.68751E-3,3.2798768E-4,-1.6687512E-4,-5.7567167E-3,-3.3900128E-3,1.8853641E-3,-8.198935E-3,-3.7541084E-3],"split_indices":[7,4,4,7,7,4,0,4,5,7,4,5,5,5,1,7,7,7,4,7,4,4,7,1,0,0,5,1,0,0,0,0,0,0,0,0,0,0,0,0,0,0,0,0,0,0,0,0,0,0,0,0,0],"split_type":[0,0,0,0,0,0,0,0,0,0,0,0,0,0,0,0,0,0,0,0,0,0,0,0,0,0,0,0,0,0,0,0,0,0,0,0,0,0,0,0,0,0,0,0,0,0,0,0,0,0,0,0,0],"sum_hessian":[5.6881E4,5.6538E4,3.43E2,1.1543E4,4.4995E4,2.77E2,6.6E1,8.151E3,3.392E3,2.8626E4,1.6369E4,5.4E1,2.23E2,4.7E1,1.9E1,7.504E3,6.47E2,3.194E3,1.98E2,1.5617E4,1.3009E4,9.13E2,1.5456E4,3.8E1,1.6E1,1.5E1,2.08E2,9E0,3.8E1,2E0,1.7E1,6.199E3,1.305E3,5E0,6.42E2,1.741E3,1.453E3,4.2E1,1.56E2,1.4679E4,9.38E2,1.0863E4,2.146E3,1.35E2,7.78E2,2.041E3,1.3415E4,1E0,3.7E1,2E2,8E0,4E0,5E0],"tree_param":{"num_deleted":"0","num_feature":"9","num_nodes":"53","size_leaf_vector":"1"}},{"base_weights":[4.6838846E-4,9.188024E-4,-1.1311173E-1,-5.4436356E-2,1.814015E-3,5.8674105E-2,-2.0054105E-1,-1.621586E-2,-6.702198E-2,2.351888E-3,-8.48385E-2,-9.233345E-2,1.3304953E-1,-2.0540087E-1,1.06057234E-1,1.885926E-2,-2.3199666E-2,-3.2180488E-2,-7.746621E-2,4.4582296E-2,1.3100003E-3,-1.3980235E-1,-5.9646312E-2,-1.7939632E-1,8.52913E-3,-3.786203E-2,1.6047716E-1,-1.6422787E-1,-2.331741E-1,-2.474467E-3,1.0428759E-2,-1.8898469E-3,3.99049E-3,1.2823301E-3,-4.5532105E-3,6.047444E-3,-3.9229062E-3,5.988096E-3,1.9619153E-4,2.8503078E-4,-5.536587E-4,-4.067388E-3,-7.914146E-3,-4.9136404E-4,-4.2325347E-3,-9.34433E-3,-2.0505653E-3,2.2937648E-3,-2.1343639E-3,-3.1437736E-3,1.435142E-4,8.839057E-3,-2.541696E-3,-7.02583E-3,-9.628317E-3,-1.2003935E-2,-8.213596E-3],"categories":[],"categories_nodes":[],"categories_segments":[],"categories_sizes":[],"default_left":[0,0,0,0,0,0,0,0,0,0,0,0,0,0,0,0,0,0,0,0,0,0,0,0,0,0,0,0,0,0,0,0,0,0,0,0,0,0,0,0,0,0,0,0,0,0,0,0,0,0,0,0,0,0,0,0,0],"id":23,"left_children":[1,3,5,7,9,11,13,15,17,19,21,23,25,27,29,-1,31,33,35,37,39,41,43,45,47,49,51,53,55,-1,-1,-1,-1,-1,-1,-1,-1,-1,-1,-1,-1,-1,-1,-1,-1,-1,-1,-1,-1,-1,-1,-1,-1,-1,-1,-1,-1],"loss_changes":[2.9270616E0,2.8241682E0,3.4060876E0,4.352064E-1,2.614118E0,8.7709135E-1,2.4528599E-1,6.2967116E-1,2.4568152E-1,2.4523766E0,4.7075367E-1,2.2984608E-1,2.4983633E-1,1.3094568E-1,5.81612E-2,0E0,3.3833215E-1,5.437423E-1,1.1261821E-1,4.1016054E0,2.9576147E0,1.0379338E-1,2.968889E-1,6.847143E-3,2.6823867E-2,8.331313E-3,1.6402102E-1,1.5273571E-2,1.4753342E-3,0E0,0E0,0E0,0E0,0E0,0E0,0E0,0E0,0E0,0E0,0E0,0E0,0E0,0E0,0E0,0E0,0E0,0E0,0E0,0E0,0E0,0E0,0E0,0E0,0E0,0E0,0E0,0E0],"parents":[2147483647,0,0,1,1,2,2,3,3,4,4,5,5,6,6,7,7,8,8,9,9,10,10,11,11,12,12,13,13,14,14,16,16,17,17,18,18,19,19,20,20,21,21,22,22,23,23,24,24,25,25,26,26,27,27,28,28],"right_children":[2,4,6,8,10,12,14,16,18,20,22,24,26,28,30,-1,32,34,36,38,40,42,44,46,48,50,52,54,56,-1,-1,-1,-1,-1,-1,-1,-1,-1,-1,-1,-1,-1,-1,-1,-1,-1,-1,-1,-1,-1,-1,-1,-1,-1,-1,-1,-1],"split_conditions":[3.6197E3,3.028052E1,1.84E2,-9.7850655E1,2.14E2,-1.2230814E2,4E0,1.5886E3,1.01E2,-1.224535E2,1.1082E3,1.83E2,1.14E2,4.2172935E1,2.2008799E4,1.885926E-2,2.234E3,-9.7731094E1,2.96262E2,2.7089E3,2.2483E3,3.02316E3,-8.770066E1,-1.2231114E2,-1.22324104E2,4.2495457E1,1.83E2,9.81936E3,-8.836509E1,-2.474467E-3,1.0428759E-2,-1.8898469E-3,3.99049E-3,1.2823301E-3,-4.5532105E-3,6.047444E-3,-3.9229062E-3,5.988096E-3,1.9619153E-4,2.8503078E-4,-5.536587E-4,-4.067388E-3,-7.914146E-3,-4.9136404E-4,-4.2325347E-3,-9.34433E-3,-2.0505653E-3,2.2937648E-3,-2.1343639E-3,-3.1437736E-3,1.435142E-4,8.839057E-3,-2.541696E-3,-7.02583E-3,-9.628317E-3,-1.2003935E-2,-8.213596E-3],"split_indices":[6,4,7,5,7,5,0,6,7,5,6,7,7,4,1,0,6,5,1,6,6,1,5,5,5,4,7,1,5,0,0,0,0,0,0,0,0,0,0,0,0,0,0,0,0,0,0,0,0,0,0,0,0,0,0,0,0],"split_type":[0,0,0,0,0,0,0,0,0,0,0,0,0,0,0,0,0,0,0,0,0,0,0,0,0,0,0,0,0,0,0,0,0,0,0,0,0,0,0,0,0,0,0,0,0,0,0,0,0,0,0,0,0,0,0,0,0],"sum_hessian":[5.7213E4,5.6988E4,2.25E2,9.06E2,5.6082E4,7.6E1,1.49E2,2.25E2,6.81E2,5.5737E4,3.45E2,2.5E1,5.1E1,1.47E2,2E0,3E0,2.22E2,1.58E2,5.23E2,1.341E3,5.4396E4,1.07E2,2.38E2,1.3E1,1.2E1,7E0,4.4E1,6.2E1,8.5E1,1E0,1E0,1.95E2,2.7E1,8E1,7.8E1,2E0,5.21E2,4.7E2,8.71E2,4.0158E4,1.4238E4,2.7E1,8E1,8E1,1.58E2,1.2E1,1E0,7E0,5E0,4E0,3E0,4.1E1,3E0,3.7E1,2.5E1,7.5E1,1E1],"tree_param":{"num_deleted":"0","num_feature":"9","num_nodes":"57","size_leaf_vector":"1"}},{"base_weights":[-4.744411E-5,2.8610272E-2,-1.575127E-3,8.176112E-3,5.7841804E-2,9.691723E-3,-6.974765E-3,3.6067516E-2,-6.996307E-2,1.9229306E-1,4.0677216E-2,2.068187E-3,4.7256794E-2,-7.48218E-2,-5.700359E-3,-1.0000834E-2,9.722514E-2,-1.6508946E-1,1.8114772E-2,2.7120993E-1,8.737823E-2,5.2244797E-2,-1.2765093E-1,1.8361472E-2,-2.2818724E-2,5.7566185E-2,-6.654818E-2,-1.1665935E-1,-1.6958056E-2,-4.1974504E-3,-6.1817314E-2,-2.8334165E-3,3.4729845E-3,3.6151458E-3,1.008886E-2,-8.468035E-3,2.4087473E-3,4.166768E-3,-1.8966178E-3,1.7672695E-2,1.1557884E-2,2.0482374E-2,1.8059005E-3,1.6464897E-3,8.534775E-3,-2.2287006E-3,-7.145066E-3,-3.383586E-3,1.3103284E-3,-3.114767E-3,6.9516775E-4,2.1538297E-3,4.9605686E-3,-5.222644E-3,7.519261E-3,-5.92415E-3,7.93468E-3,-3.657462E-3,1.9918194E-2,-7.052371E-5,-1.4432938E-3,-8.177648E-3,4.939993E-4],"categories":[],"categories_nodes":[],"categories_segments":[],"categories_sizes":[],"default_left":[0,0,0,0,0,0,0,0,0,0,0,0,0,0,0,0,0,0,0,0,0,0,0,0,0,0,0,0,0,0,0,0,0,0,0,0,0,0,0,0,0,0,0,0,0,0,0,0,0,0,0,0,0,0,0,0,0,0,0,0,0,0,0],"id":24,"left_children":[1,3,5,7,9,11,13,15,17,19,21,23,25,27,29,31,33,35,37,39,41,43,45,47,49,51,53,55,57,59,61,-1,-1,-1,-1,-1,-1,-1,-1,-1,-1,-1,-1,-1,-1,-1,-1,-1,-1,-1,-1,-1,-1,-1,-1,-1,-1,-1,-1,-1,-1,-1,-1],"loss_changes":[2.4939234E0,1.7216058E0,3.290249E0,3.703164E0,2.729229E0,5.0178285E0,3.160808E0,3.528395E0,3.748192E0,1.0857615E0,2.0570178E0,5.9071846E0,3.4719892E0,1.6296928E0,3.0264864E0,2.655316E0,1.3872619E0,2.0400381E-1,8.5487556E-1,1.686449E-1,9.598604E-1,2.2502255E0,7.978332E-2,5.943932E0,8.356725E0,1.6316032E0,2.0385156E0,2.1514225E-1,6.65697E0,2.402989E0,6.828961E0,0E0,0E0,0E0,0E0,0E0,0E0,0E0,0E0,0E0,0E0,0E0,0E0,0E0,0E0,0E0,0E0,0E0,0E0,0E0,0E0,0E0,0E0,0E0,0E0,0E0,0E0,0E0,0E0,0E0,0E0,0E0,0E0],"parents":[2147483647,0,0,1,1,2,2,3,3,4,4,5,5,6,6,7,7,8,8,9,9,10,10,11,11,12,12,13,13,14,14,15,15,16,16,17,17,18,18,19,19,20,20,21,21,22,22,23,23,24,24,25,25,26,26,27,27,28,28,29,29,30,30],"right_children":[2,4,6,8,10,12,14,16,18,20,22,24,26,28,30,32,34,36,38,40,42,44,46,48,50,52,54,56,58,60,62,-1,-1,-1,-1,-1,-1,-1,-1,-1,-1,-1,-1,-1,-1,-1,-1,-1,-1,-1,-1,-1,-1,-1,-1,-1,-1,-1,-1,-1,-1,-1,-1],"split_conditions":[9.063E2,1.68E2,-1.1797845E2,1.6E2,1.73E2,1.78E2,-1.17961525E2,1.3E2,1.62E2,8.631E2,-7.1132195E1,1.49E2,4.7896034E1,3.3796494E1,4.2451023E1,4.1874947E1,4.2251926E1,8E0,-1.18532646E2,-1.22199265E2,-1.2218086E2,-7.1488144E1,4.869E2,3.375631E1,-1.22194695E2,4.7498566E1,2.0513E3,6E0,1.7E2,-7.123012E1,-7.1454666E1,-2.8334165E-3,3.4729845E-3,3.6151458E-3,1.008886E-2,-8.468035E-3,2.4087473E-3,4.166768E-3,-1.8966178E-3,1.7672695E-2,1.1557884E-2,2.0482374E-2,1.8059005E-3,1.6464897E-3,8.534775E-3,-2.2287006E-3,-7.145066E-3,-3.383586E-3,1.3103284E-3,-3.114767E-3,6.9516775E-4,2.1538297E-3,4.9605686E-3,-5.222644E-3,7.519261E-3,-5.92415E-3,7.93468E-3,-3.657462E-3,1.9918194E-2,-7.052371E-5,-1.4432938E-3,-8.177648E-3,4.939993E-4],"split_indices":[6,7,5,7,7,7,5,7,7,6,5,7,4,4,4,4,4,0,5,5,5,5,6,4,5,4,6,0,7,5,5,0,0,0,0,0,0,0,0,0,0,0,0,0,0,0,0,0,0,0,0,0,0,0,0,0,0,0,0,0,0,0,0],"split_type":[0,0,0,0,0,0,0,0,0,0,0,0,0,0,0,0,0,0,0,0,0,0,0,0,0,0,0,0,0,0,0,0,0,0,0,0,0,0,0,0,0,0,0,0,0,0,0,0,0,0,0,0,0,0,0,0,0,0,0,0,0,0,0],"sum_hessian":[5.6963E4,2.882E3,5.4081E4,1.697E3,1.185E3,1.7521E4,3.656E4,1.251E3,4.46E2,1.33E2,1.052E3,1.4566E4,2.955E3,6.73E2,3.5887E4,7.14E2,5.37E2,2.14E2,2.32E2,7.5E1,5.8E1,9.85E2,6.7E1,8.803E3,5.763E3,2.71E3,2.45E2,3.9E2,2.83E2,3.4952E4,9.35E2,4.5E2,2.64E2,4.35E2,1.02E2,2.1E2,4E0,1.07E2,1.25E2,2.2E1,5.3E1,7E0,5.1E1,8.48E2,1.37E2,1.1E1,5.6E1,7.35E2,8.068E3,2.777E3,2.986E3,2.012E3,6.98E2,2.09E2,3.6E1,3.88E2,2E0,2.5E2,3.3E1,3.1405E4,3.547E3,3.86E2,5.49E2],"tree_param":{"num_deleted":"0","num_feature":"9","num_nodes":"63","size_leaf_vector":"1"}},{"base_weights":[1.2874645E-3,-4.6819944E-2,2.2319418E-3,1.0545234E-2,-6.487543E-2,6.46791E-2,1.474911E-3,1.815468E-2,5.080854E-3,-2.456558E-2,-7.457086E-2,2.5783795E-1,5.582553E-2,8.655309E-3,-6.1896234E-3,-2.283643E-2,6.596028E-2,1.3333489E-1,-4.7581974E-2,-8.015097E-2,-1.1857984E-2,4.044454E-3,1.4145711E-2,-1.3158911E-2,7.429297E-2,7.541704E-3,1.0906973E-1,-3.2251652E-3,-7.7278025E-2,-6.027854E-3,-4.1876055E-4,1.031128E-3,6.8078004E-3,-6.4803795E-3,7.6481192E-3,-1.9699014E-4,-4.246919E-3,-3.1384376E-3,-4.573031E-3,-5.1905722E-3,3.0175608E-3,6.580436E-3,-1.9626704E-3,3.1122384E-3,2.0824296E-2,1.2738279E-3,1.07630614E-4,7.6254806E-3,5.6065916E-4,3.2363325E-6,-3.6761828E-3,7.6547636E-5,-8.16764E-3],"categories":[],"categories_nodes":[],"categories_segments":[],"categories_sizes":[],"default_left":[0,0,0,0,0,0,0,0,0,0,0,0,0,0,0,0,0,0,0,0,0,0,0,0,0,0,0,0,0,0,0,0,0,0,0,0,0,0,0,0,0,0,0,0,0,0,0,0,0,0,0,0,0],"id":25,"left_children":[1,3,5,7,9,11,13,-1,15,17,19,21,23,25,27,29,31,33,35,37,39,-1,-1,41,43,45,47,49,51,-1,-1,-1,-1,-1,-1,-1,-1,-1,-1,-1,-1,-1,-1,-1,-1,-1,-1,-1,-1,-1,-1,-1,-1],"loss_changes":[2.5839336E0,1.1348372E0,2.6365407E0,5.0481373E-1,3.2372236E-1,1.1279833E0,3.0327797E0,0E0,4.4339922E-1,5.9873503E-1,2.3386264E-1,1.0579467E-1,8.163159E-1,3.1807368E0,5.616988E0,2.5194588E-1,2.5815824E-1,1.2820414E-1,2.3280036E-1,1.15356445E-1,3.7809876E-1,0E0,0E0,5.1892495E-1,2.056096E0,2.7198448E0,1.3245637E0,5.918086E0,7.2382064E0,0E0,0E0,0E0,0E0,0E0,0E0,0E0,0E0,0E0,0E0,0E0,0E0,0E0,0E0,0E0,0E0,0E0,0E0,0E0,0E0,0E0,0E0,0E0,0E0],"parents":[2147483647,0,0,1,1,2,2,3,3,4,4,5,5,6,6,8,8,9,9,10,10,11,11,12,12,13,13,14,14,15,15,16,16,17,17,18,18,19,19,20,20,23,23,24,24,25,25,26,26,27,27,28,28],"right_children":[2,4,6,8,10,12,14,-1,16,18,20,22,24,26,28,30,32,34,36,38,40,-1,-1,42,44,46,48,50,52,-1,-1,-1,-1,-1,-1,-1,-1,-1,-1,-1,-1,-1,-1,-1,-1,-1,-1,-1,-1,-1,-1,-1,-1],"split_conditions":[3.0312185E1,-9.7850655E1,3.054274E1,1.5886E3,1.01E2,6.984E2,1.5E1,1.815468E-2,2.1365E3,1.3365E3,-9.771605E1,3.0457497E1,8.936E2,4.767434E1,-8.794366E1,1.819E3,3.0215637E1,1.1807E3,1.6353E3,3.0215637E1,1.46E2,4.044454E-3,1.4145711E-2,-9.778072E1,-9.7694016E1,1.4065E3,4.781457E1,1.96E2,4.1962254E1,-6.027854E-3,-4.1876055E-4,1.031128E-3,6.8078004E-3,-6.4803795E-3,7.6481192E-3,-1.9699014E-4,-4.246919E-3,-3.1384376E-3,-4.573031E-3,-5.1905722E-3,3.0175608E-3,6.580436E-3,-1.9626704E-3,3.1122384E-3,2.0824296E-2,1.2738279E-3,1.07630614E-4,7.6254806E-3,5.6065916E-4,3.2363325E-6,-3.6761828E-3,7.6547636E-5,-8.16764E-3],"split_indices":[4,5,4,6,7,6,8,0,6,6,5,4,6,4,5,6,4,6,6,4,7,0,0,5,5,6,4,7,4,0,0,0,0,0,0,0,0,0,0,0,0,0,0,0,0,0,0,0,0,0,0,0,0],"split_type":[0,0,0,0,0,0,0,0,0,0,0,0,0,0,0,0,0,0,0,0,0,0,0,0,0,0,0,0,0,0,0,0,0,0,0,0,0,0,0,0,0,0,0,0,0,0,0,0,0,0,0,0,0],"sum_hessian":[5.6866E4,1.094E3,5.5772E4,2.62E2,8.32E2,6.67E2,5.5105E4,3E0,2.59E2,1.62E2,6.7E2,2.8E1,6.39E2,2.8451E4,2.6654E4,1.78E2,8.1E1,2E1,1.42E2,6.15E2,5.5E1,4E0,2.4E1,1.35E2,5.04E2,2.814E4,3.11E2,2.5588E4,1.066E3,2.2E1,1.56E2,5E1,3.1E1,1E0,1.9E1,6.6E1,7.6E1,2.45E2,3.7E2,2.4E1,3.1E1,2E1,1.15E2,4.88E2,1.6E1,6.501E3,2.1639E4,2.15E2,9.6E1,2.4445E4,1.143E3,5.57E2,5.09E2],"tree_param":{"num_deleted":"0","num_feature":"9","num_nodes":"53","size_leaf_vector":"1"}},{"base_weights":[2.980871E-4,-1.2835513E-2,3.6322966E-3,6.21948E-3,-5.4102145E-2,-4.8058033E-3,1.6331764E-2,-6.328508E-4,8.369877E-2,-5.3384216E-3,-6.539404E-2,8.837655E-3,-2.3183346E-2,1.15525484E-1,1.1164539E-2,4.0519456E-3,-1.0393432E-1,6.3565016E-2,3.4318036E-1,-4.8934273E-2,5.669701E-2,-3.926045E-2,-9.54875E-2,3.8238394E-3,8.766487E-2,-9.063897E-3,-1.0086285E-1,2.4394189E-1,8.802506E-2,6.5047205E-3,5.5485606E-2,-1.8274729E-4,4.11386E-3,-8.13815E-3,-3.1927011E-3,6.9516273E-3,-5.805636E-4,1.8879643E-2,-5.6274496E-3,-2.903322E-4,-3.5399136E-3,6.5000023E-4,3.6736466E-3,-3.0723696E-3,1.2396261E-3,-5.761488E-3,1.6116413E-3,-3.4398963E-3,4.8465567E-4,8.476264E-3,2.4641869E-3,-4.1338066E-3,-1.0889118E-4,-6.971225E-3,-2.6460164E-3,1.5446422E-2,4.1945046E-3,-6.720734E-4,5.2385707E-3,4.1332582E-4,-3.6952589E-3,3.6701155E-3,-6.160761E-3],"categories":[],"categories_nodes":[],"categories_segments":[],"categories_sizes":[],"default_left":[0,0,0,0,0,0,0,0,0,0,0,0,0,0,0,0,0,0,0,0,0,0,0,0,0,0,0,0,0,0,0,0,0,0,0,0,0,0,0,0,0,0,0,0,0,0,0,0,0,0,0,0,0,0,0,0,0,0,0,0,0,0,0],"id":26,"left_children":[1,3,5,7,9,11,13,15,17,19,21,23,25,27,29,31,33,35,37,39,41,43,45,47,49,51,53,55,57,59,61,-1,-1,-1,-1,-1,-1,-1,-1,-1,-1,-1,-1,-1,-1,-1,-1,-1,-1,-1,-1,-1,-1,-1,-1,-1,-1,-1,-1,-1,-1,-1,-1],"loss_changes":[2.4976192E0,9.080937E0,4.8745446E0,4.1948028E0,2.0083666E0,6.852744E0,9.306221E0,3.5138717E0,3.3322115E0,1.8607574E0,2.325716E0,6.1991663E0,1.2771227E1,3.1533508E0,3.5645206E0,4.1878595E0,7.323363E-1,3.3886151E0,7.639055E-1,3.805375E-1,2.0723307E-1,2.2568717E0,3.473281E0,6.287237E0,2.9387436E0,4.9953113E0,3.3037186E0,1.6174765E0,1.2622104E0,2.213431E0,5.266285E0,0E0,0E0,0E0,0E0,0E0,0E0,0E0,0E0,0E0,0E0,0E0,0E0,0E0,0E0,0E0,0E0,0E0,0E0,0E0,0E0,0E0,0E0,0E0,0E0,0E0,0E0,0E0,0E0,0E0,0E0,0E0,0E0],"parents":[2147483647,0,0,1,1,2,2,3,3,4,4,5,5,6,6,7,7,8,8,9,9,10,10,11,11,12,12,13,13,14,14,15,15,16,16,17,17,18,18,19,19,20,20,21,21,22,22,23,23,24,24,25,25,26,26,27,27,28,28,29,29,30,30],"right_children":[2,4,6,8,10,12,14,16,18,20,22,24,26,28,30,32,34,36,38,40,42,44,46,48,50,52,54,56,58,60,62,-1,-1,-1,-1,-1,-1,-1,-1,-1,-1,-1,-1,-1,-1,-1,-1,-1,-1,-1,-1,-1,-1,-1,-1,-1,-1,-1,-1,-1,-1,-1,-1],"split_conditions":[3.386152E1,1.65E2,1.68E2,1.61E2,3.054274E1,1.5E2,3.3907433E1,1.6E2,3.38184E1,3.025004E1,1.8E2,1.48E2,4.725297E1,3.3870625E1,4.7509563E1,1.56E2,1.5E1,3.378352E1,3.3829517E1,1.66E2,3.7E1,1.75E2,1.6E1,3.3897877E1,3.402356E1,1.52E2,1.62E2,1.74E2,3.387985E1,2.14E2,1.96E2,-1.8274729E-4,4.11386E-3,-8.13815E-3,-3.1927011E-3,6.9516273E-3,-5.805636E-4,1.8879643E-2,-5.6274496E-3,-2.903322E-4,-3.5399136E-3,6.5000023E-4,3.6736466E-3,-3.0723696E-3,1.2396261E-3,-5.761488E-3,1.6116413E-3,-3.4398963E-3,4.8465567E-4,8.476264E-3,2.4641869E-3,-4.1338066E-3,-1.0889118E-4,-6.971225E-3,-2.6460164E-3,1.5446422E-2,4.1945046E-3,-6.720734E-4,5.2385707E-3,4.1332582E-4,-3.6952589E-3,3.6701155E-3,-6.160761E-3],"split_indices":[4,7,7,7,4,7,4,7,4,4,7,7,4,4,4,7,8,4,4,7,2,7,8,4,4,7,7,7,4,7,7,0,0,0,0,0,0,0,0,0,0,0,0,0,0,0,0,0,0,0,0,0,0,0,0,0,0,0,0,0,0,0,0],"split_type":[0,0,0,0,0,0,0,0,0,0,0,0,0,0,0,0,0,0,0,0,0,0,0,0,0,0,0,0,0,0,0,0,0,0,0,0,0,0,0,0,0,0,0,0,0,0,0,0,0,0,0,0,0,0,0,0,0,0,0,0,0,0,0],"sum_hessian":[5.7034E4,1.1547E4,4.5487E4,7.9E3,3.647E3,2.7329E4,1.8158E4,7.259E3,6.41E2,6.86E2,2.961E3,1.5685E4,1.1644E4,8.98E2,1.726E4,6.945E3,3.14E2,5.96E2,4.5E1,4.03E2,2.83E2,1.586E3,1.375E3,1.4748E4,9.37E2,9.854E3,1.79E3,1.57E2,7.41E2,1.5619E4,1.641E3,6.323E3,6.22E2,1.26E2,1.88E2,2.97E2,2.99E2,4.2E1,3E0,1.36E2,2.67E2,7.9E1,2.04E2,1.178E3,4.08E2,1.191E3,1.84E2,1.102E3,1.3646E4,2.98E2,6.39E2,8.42E2,9.012E3,9.91E2,7.99E2,1.11E2,4.6E1,1.05E2,6.36E2,1.5285E4,3.34E2,1.492E3,1.49E2],"tree_param":{"num_deleted":"0","num_feature":"9","num_nodes":"63","size_leaf_vector":"1"}},{"base_weights":[1.5459728E-4,6.611546E-4,-8.1953E-2,1.0409525E-3,-1.00597516E-1,-1.3127099E-1,-5.849874E-2,-1.3516514E-2,3.6792795E-3,5.4451425E-2,-1.7741355E-1,-1.3454817E-1,3.2649323E-2,-6.260067E-2,1.4252678E-2,4.600827E-3,-6.541619E-2,-4.1867043E-3,1.7661769E-2,1.7391609E-1,-1.425581E-2,-1.08656876E-1,-1.9261159E-1,-9.083424E-2,-1.4980546E-1,-5.0449413E-3,7.4936408E-3,-1.1798382E-1,-4.6780653E-2,-5.6773215E-4,3.1251793E-3,3.518701E-3,-4.047923E-3,5.386035E-4,-1.1422262E-3,1.1533849E-3,-2.4881708E-3,5.563194E-3,1.6403863E-2,-2.1703548E-3,5.5205687E-3,-2.73539E-3,-7.0173494E-3,-9.97444E-3,-5.8479058E-3,-5.420619E-3,1.0912756E-2,-5.556675E-3,-7.886849E-3,-6.466569E-3,-3.699629E-3,-7.2689126E-3,-2.0472936E-3],"categories":[],"categories_nodes":[],"categories_segments":[],"categories_sizes":[],"default_left":[0,0,0,0,0,0,0,0,0,0,0,0,0,0,0,0,0,0,0,0,0,0,0,0,0,0,0,0,0,0,0,0,0,0,0,0,0,0,0,0,0,0,0,0,0,0,0,0,0,0,0,0,0],"id":27,"left_children":[1,3,5,7,9,11,13,15,17,19,21,23,25,27,-1,29,31,33,35,37,39,41,43,45,47,-1,-1,49,51,-1,-1,-1,-1,-1,-1,-1,-1,-1,-1,-1,-1,-1,-1,-1,-1,-1,-1,-1,-1,-1,-1,-1,-1],"loss_changes":[2.3741374E0,2.1818557E0,3.971715E-1,2.1708336E0,2.5346324E0,6.455898E-2,3.5465008E-1,8.154445E0,5.262796E0,5.852535E-1,1.2745667E-1,5.975771E-2,6.208693E-2,2.0213115E-1,0E0,5.9402423E0,4.7416325E0,8.547068E0,6.2803154E0,2.1461886E-1,1.7196621E-1,4.0192157E-2,3.650093E-2,1.9209132E-1,7.0084333E-3,0E0,0E0,1.6388476E-2,1.01052314E-1,0E0,0E0,0E0,0E0,0E0,0E0,0E0,0E0,0E0,0E0,0E0,0E0,0E0,0E0,0E0,0E0,0E0,0E0,0E0,0E0,0E0,0E0,0E0,0E0],"parents":[2147483647,0,0,1,1,2,2,3,3,4,4,5,5,6,6,7,7,8,8,9,9,10,10,11,11,12,12,13,13,15,15,16,16,17,17,18,18,19,19,20,20,21,21,22,22,23,23,24,24,27,27,28,28],"right_children":[2,4,6,8,10,12,14,16,18,20,22,24,26,28,-1,30,32,34,36,38,40,42,44,46,48,-1,-1,50,52,-1,-1,-1,-1,-1,-1,-1,-1,-1,-1,-1,-1,-1,-1,-1,-1,-1,-1,-1,-1,-1,-1,-1,-1],"split_conditions":[2.14E2,3.6197E3,1.0983E3,3.380075E1,1.5E1,4.2214916E1,4.220754E1,1.66E2,1.7E2,4.2189266E1,4.216626E1,3.880896E3,5.81672E3,4.1715675E1,1.4252678E-2,1.56E2,1.0983E3,1.5E2,-7.12658E1,4.2172935E1,4.7089836E1,-8.836509E1,1.42E2,1.07E2,2.9E1,-5.0449413E-3,7.4936408E-3,2.1365E3,1.1288E3,-5.6773215E-4,3.1251793E-3,3.518701E-3,-4.047923E-3,5.386035E-4,-1.1422262E-3,1.1533849E-3,-2.4881708E-3,5.563194E-3,1.6403863E-2,-2.1703548E-3,5.5205687E-3,-2.73539E-3,-7.0173494E-3,-9.97444E-3,-5.8479058E-3,-5.420619E-3,1.0912756E-2,-5.556675E-3,-7.886849E-3,-6.466569E-3,-3.699629E-3,-7.2689126E-3,-2.0472936E-3],"split_indices":[7,6,6,4,8,4,4,7,7,4,4,1,1,4,0,7,6,7,5,4,4,5,2,2,2,0,0,6,6,0,0,0,0,0,0,0,0,0,0,0,0,0,0,0,0,0,0,0,0,0,0,0,0],"split_type":[0,0,0,0,0,0,0,0,0,0,0,0,0,0,0,0,0,0,0,0,0,0,0,0,0,0,0,0,0,0,0,0,0,0,0,0,0,0,0,0,0,0,0,0,0,0,0,0,0,0,0,0,0],"sum_hessian":[5.7079E4,5.673E4,3.49E2,5.6519E4,2.11E2,1.11E2,2.38E2,8.671E3,4.7848E4,7E1,1.41E2,1.09E2,2E0,2.36E2,2E0,6.428E3,2.243E3,3.0622E4,1.7226E4,2.5E1,4.5E1,2.7E1,1.14E2,3E1,7.9E1,1E0,1E0,5.1E1,1.85E2,5.04E3,1.388E3,2.3E2,2.013E3,1.6996E4,1.3626E4,1.5948E4,1.278E3,1.9E1,6E0,3.7E1,8E0,1.1E1,1.6E1,1.03E2,1.1E1,2.9E1,1E0,1.6E1,6.3E1,3.9E1,1.2E1,9E0,1.76E2],"tree_param":{"num_deleted":"0","num_feature":"9","num_nodes":"53","size_leaf_vector":"1"}},{"base_weights":[2.336676E-4,6.44912E-4,-1.0149916E-1,3.1702902E-2,-6.1056163E-4,5.062926E-2,-1.7445487E-1,-3.7565235E-2,4.148958E-2,1.1580058E-3,-2.3086173E-2,-7.239277E-2,1.1358813E-1,-1.405449E-1,-1.9934374E-1,5.3641688E-2,-1.6524543E-1,-9.082422E-3,6.1359797E-2,5.882278E-2,7.328359E-5,-3.4154297E-3,-6.1895058E-2,-1.6271316E-1,1.6647074E-2,1.3373217E-1,-2.821178E-3,-6.8323076E-2,-1.5455085E-1,-2.259328E-1,-1.7976587E-1,5.858145E-3,-1.5915344E-3,-8.814087E-3,1.4317768E-3,-1.1572586E-3,1.7145943E-2,3.4913947E-3,-4.7017606E-3,5.0938176E-3,5.6365965E-4,3.6479227E-4,-3.1439462E-4,2.2094408E-3,-2.0244294E-3,-5.1828846E-3,5.40396E-3,-8.478311E-3,-2.0119117E-3,2.6113563E-3,-1.9748758E-3,9.212132E-3,3.6275554E-3,-6.0019507E-3,1.9215113E-3,-3.4204603E-3,-7.903483E-3,-4.0119044E-3,-1.1637207E-2,1.9020742E-3,-9.435139E-3],"categories":[],"categories_nodes":[],"categories_segments":[],"categories_sizes":[],"default_left":[0,0,0,0,0,0,0,0,0,0,0,0,0,0,0,0,0,0,0,0,0,0,0,0,0,0,0,0,0,0,0,0,0,0,0,0,0,0,0,0,0,0,0,0,0,0,0,0,0,0,0,0,0,0,0,0,0,0,0,0,0],"id":28,"left_children":[1,3,5,7,9,11,13,15,17,19,21,23,25,27,29,31,33,35,37,39,41,43,45,47,49,51,-1,53,55,57,59,-1,-1,-1,-1,-1,-1,-1,-1,-1,-1,-1,-1,-1,-1,-1,-1,-1,-1,-1,-1,-1,-1,-1,-1,-1,-1,-1,-1,-1,-1],"loss_changes":[2.379632E0,2.2089047E0,2.55042E0,1.4936273E0,2.1643546E0,5.8912253E-1,1.0280037E-1,3.188036E0,1.9389641E0,3.1574078E0,3.032012E0,2.1180364E-1,1.787818E-1,5.9236646E-2,4.673481E-3,8.724189E-1,2.4897718E-1,2.7057447E0,1.8290877E0,1.9068222E0,2.2764325E0,4.6556706E0,9.494896E0,4.088223E-3,3.0029623E-2,1.2569582E-1,0E0,7.638412E-2,